tree
version=v4
num_class=1
num_tree_per_iteration=1
label_index=0
max_feature_idx=13
objective=regression
feature_names=L h b AR f′c fyl fyv Pl Pv s Pd fyd α֯ θ
feature_infos=[424:2235] [169:700] [100:406] [0.75:4.9000000000000004] [18.100000000000001:86] [281:567] [212:953] [0.089999999999999997:4.0999999999999996] [0.096000000000000002:2.8999999999999999] [25:200] [0:5.7999999999999998] [0:883] [0:45] [0.057000000000000002:12.223000000000001]
tree_sizes=823 855 856 858 858 850 764 852 772 866 848 867 849 853 861 856 860 862 861 861 853 861 854 866 773 857 855 858 771 849 865 683 861 774 856 862 863 686 859 774 767 773 866 859 776 860 780 777 865 870 861 775 776 868 871 868 611 771 783 785 868 870 686 780 863 866 873 870 782 865 790 780 782 871 870 606 874 876 863 875 786 690 874 868 692 782 609 607 781 521 599 871 793 781 886 868 694 778 867 862 867 607 781 605 873 597 690 598 613 589 882 872 694 782 869 609 608 788 613 879 780 696 785 785 879 870 875 880 606 880 869 782 783 788 879 794 605 880 616 614 610 608 876 602 773 699 788 774 868 854 694 606 699 760 786 609 610 871 887 878 613 878 883 874 614 613 885 613 872 694 783 615 870 779 604 615 868 618 607 693 871 882 794 878 876 611 614 613 803 697 860 882 875 884 873 609 785 790 609 872 616 615 609 788 872 611 878 613 879 874 610 704 695 871 607 794 785 794 695 877 606 621 793 790 874 887 883 881 615 793 876 795 606 792 788 800 873 888 760 888 606 613 790 877 708 874 803 884 784 786 787 882 798 878 881 889 790 608 890 785 790 788 609 700 795 797 874 610 796 875 619 873 882 607 797 805 793 701 780 705 698 885 787 699 880 611 796 791 875 792 615 785 796 795 883 610 612 795 696 885 609 873 702 874 862 886 611 787 886 792 786 615 798 892 713 880 783 880 610 884 803 608 606 796 796 608 696 704 717 789 878 612 873 804 613 707 791 701 695 791 615 795 794 710 885 703 703 786 706 880 881 885 886 704 886 892 891 881 889 876 877 794 880 798 884 790 795 625 794 887 790 707 705 622 893 791 609 790 610 881 705 708 877 793 701 784 789 873 793 889 797 706 892 790 883 700 618 797 616 714 702 883 797 893 794 891 791 801 893 702 893 699 884 612 870 794 709 797 794 881 882 797 608 877 793 694 697 701 797 885 894 795 790 883 895 796 800 880 784 797 894 894 886 887 796 882 883 769 888 691 706 880 793 802 798 890 890 710 712 887 707 709 793 801 619 704 860 790 891 705 523 770 601 876 794 885 886 616 889 883 875 887 891 526 703 891 896 890 800 615 895 880 798 798 608 794 890 792 774 791 621 623 893 896 703 796 885 790 791 792 798 798 880 786 794 693 705 882 803 788 692 806 888 897 706 617 597 621 621 894 893 888 712 884 884 717 887 790 890 707 890 883 890 885 796 706 705 701 795 883 877 705 784 710 790 700 886 795 713 886 899 798 712 617 807 707 887 788 798 805 897 794 899 882 773 883 701 795 889 711 531 795 886 790 803 615 620 627 882 619 886 792 620 792 873 703 888 796 807 799 707 695 897 612 792 618 802 894 901 796 852 805 883 616 889 793 884 614 799 618 803 893 808 896 807 529 877 852 901 893 697 863 712 703 784 889 874 894 622 788 869 796 622 891 889 620 885 622 802 875 622 614 783 611 702 719 890 788 714 805 611 582 613 618 526 793 790 883 890 618 790 706 709 897 710 791 707 883 875 875 886 801 714 793 788 670 680 796 800 801 891 903 889 804 890 798 792 796 890 894 899 715 712 616 793 616 811 792 883 612 790 892 793 895 800 901 793 801 883 781 803 802 706 796 794 891 890 804 800 897 886 893 893 885 773 806 795 793 620 621 705 705 796 618 714 901 614 611 792 869 591 620 616 615 709 898 797 715 889 904 804 705 792 712 432 900 703 614 708 811 612 614 620 611 707 794 703 617 713 889 907 528 802 892 621 628 898 627 877 711 615 717 879 620 811 790 797 797 891 705 806 617 713 712 897 709 800 624 615 539 619 624 623 709 798 814 798 614 525 613 625 769 865 710 346 707 714 799 708 711 792 692 799 691 805 776 890 899 891 433 801 804 801 802 898 793 707 793 523 344 892 800 799 717 343 437 344 896 799

Tree=0
num_leaves=8
num_cat=0
split_feature=13 13 1 13 2 2 1
split_gain=226.242 43.1833 27.2542 24.4666 24.0519 7.85546 5.47206
threshold=3.1715000000000004 1.3710000000000002 470.00000000000006 5.4475000000000007 302.50000000000006 252.00000000000003 557.50000000000011
decision_type=2 2 2 2 2 2 2
left_child=1 6 -3 4 -2 -5 -1
right_child=3 2 -4 5 -6 -7 -8
leaf_value=0.66581852903974059 0.74568114214188186 0.69498218210581608 0.72716616314794136 0.77779619343340223 0.70235198654799602 0.75517091297974015 0.68989314336029384
leaf_weight=666 1270 1248 708 420 266 710 215
leaf_count=666 1270 1248 708 420 266 710 215
internal_value=0.721537 0.695781 0.706633 0.748946 0.738176 0.763583 0.671691
internal_weight=5503 2837 1956 2666 1536 1130 881
internal_count=5503 2837 1956 2666 1536 1130 881
is_linear=0
shrinkage=1


Tree=1
num_leaves=8
num_cat=0
split_feature=13 13 13 2 3 5 13
split_gain=173.495 33.2671 23.839 17.9825 14.3308 7.56919 2.28679
threshold=2.6555000000000004 4.2695000000000016 1.1815000000000002 302.50000000000006 1.0850000000000002 489.00000000000006 0.62800000000000011
decision_type=2 2 2 2 2 2 2
left_child=2 3 6 -2 -4 -3 -1
right_child=1 5 4 -5 -6 -7 -8
leaf_value=-0.060564012160895409 0.01080955556852712 0.028377736705933781 0.017685177459700715 -0.032131866665472145 -0.022549723130364626 0.05299778574777339 -0.043117615900519025
leaf_weight=175 1149 1557 169 196 1506 249 502
leaf_count=175 1149 1557 169 196 1506 249 502
internal_value=5.18987e-05 0.020154 -0.0268781 0.00455011 -0.0184888 0.0317736 -0.0476311
internal_weight=5503 3151 2352 1345 1675 1806 677
internal_count=5503 3151 2352 1345 1675 1806 677
is_linear=0
shrinkage=0.131037


Tree=2
num_leaves=8
num_cat=0
split_feature=13 13 11 13 2 1 2
split_gain=131.865 33.3296 20.0823 12.3843 16.1839 11.7254 3.88798
threshold=3.5640000000000005 1.8705000000000003 480.50000000000006 7.096000000000001 302.50000000000006 557.50000000000011 252.00000000000003
decision_type=2 2 2 2 2 2 2
left_child=1 5 -3 4 -2 -1 -5
right_child=3 2 -4 6 -6 -7 -8
leaf_value=-0.038130166303585851 0.02519469291088362 0.0052438886719053616 -0.025369726422525871 0.061348447617564514 -0.0042154198176743334 -0.010606574369446157 0.034845929958115716
leaf_weight=1139 1365 1128 546 122 420 347 436
leaf_count=1139 1365 1128 546 122 420 347 436
internal_value=4.5039e-05 -0.0174209 -0.0047398 0.0236023 0.0182733 -0.0317047 0.0406449
internal_weight=5503 3160 1674 2343 1785 1486 558
internal_count=5503 3160 1674 2343 1785 1486 558
is_linear=0
shrinkage=0.131037


Tree=3
num_leaves=8
num_cat=0
split_feature=13 13 2 11 13 2 13
split_gain=101.574 25.1491 16.9446 14.1942 15.143 4.85159 1.39786
threshold=2.3775000000000008 4.4755000000000011 302.50000000000006 476.50000000000006 1.0790000000000004 252.00000000000003 1.6790000000000003
decision_type=2 2 2 2 2 2 2
left_child=3 2 -2 4 -1 -3 -5
right_child=1 5 -4 6 -6 -7 -8
leaf_value=-0.036316612243117219 0.0082089075363948535 0.03364735588955807 -0.028266605867968461 -0.047189812795031885 -0.0076894101556068649 0.019301507499794823 -0.033965026898883297
leaf_weight=456 1535 706 255 292 1044 952 263
leaf_count=456 1535 706 255 292 1044 952 263
internal_value=3.90833e-05 0.0137834 0.00301132 -0.0230208 -0.0163937 0.0254116 -0.0409274
internal_weight=5503 3448 1790 2055 1500 1658 555
internal_count=5503 3448 1790 2055 1500 1658 555
is_linear=0
shrinkage=0.131037


Tree=4
num_leaves=8
num_cat=0
split_feature=5 12 6 4 3 1 5
split_gain=5.97154 4.53702 4.35799 3.39254 2.7918 2.21613 2.20106
threshold=447.50000000000006 9.5000000000000018 453.00000000000006 42.100000000000009 1.0850000000000002 490.00000000000006 456.00000000000006
decision_type=2 2 2 2 2 2 2
left_child=2 4 5 -4 -2 -1 -3
right_child=1 6 3 -5 -6 -7 -8
leaf_value=-0.0034156590560882761 0.025912372894086252 0.016252548757256343 0.0062951195292222581 -0.015313706735986409 0.0066708566776094262 0.010445897016456122 -0.0022256611556266152
leaf_weight=743 142 118 147 819 1482 270 1782
leaf_count=743 142 118 147 819 1482 270 1782
internal_value=3.37871e-05 0.00326899 -0.00572592 -0.0120229 0.0083548 0.000276604 -0.0010768
internal_weight=5503 3524 1979 966 1624 1013 1900
internal_count=5503 3524 1979 966 1624 1013 1900
is_linear=0
shrinkage=0.131037


Tree=5
num_leaves=8
num_cat=0
split_feature=13 13 1 13 2 6 13
split_gain=81.4377 13.9074 16.103 13.6746 12.6775 3.30912 2.17938
threshold=2.8765000000000005 1.2850000000000004 470.00000000000006 5.9055000000000009 302.50000000000006 453.00000000000006 0.75250000000000006
decision_type=2 2 2 2 2 2 2
left_child=1 6 -3 4 -2 -5 -1
right_child=3 2 -4 5 -6 -7 -8
leaf_value=-0.041060133534792806 0.013635861346537147 -0.020346610947025123 0.005520216244757588 0.03910147552759196 -0.01351375259433568 0.02249056413328706 -0.02655810452893818
leaf_weight=273 1642 1102 661 307 360 630 517
leaf_count=273 1642 1102 661 307 360 630 517
internal_value=-2.25637e-06 -0.0171232 -0.010647 0.0148693 0.00875262 0.0279356 -0.0315727
internal_weight=5492 2553 1763 2939 2002 937 790
internal_count=5492 2553 1763 2939 2002 937 790
is_linear=0
shrinkage=0.131037


Tree=6
num_leaves=7
num_cat=0
split_feature=5 2 4 7 10 7
split_gain=5.19664 4.2353 2.98725 0.274027 0.0304934 0.00761697
threshold=549.50000000000011 101.00000000000001 65.250000000000014 0.98000000000000009 0.51000000000000012 1.7050000000000003
decision_type=2 2 2 2 2 2
left_child=1 3 -3 -1 5 -2
right_child=4 2 -4 -5 -6 -7
leaf_value=0.016618805388901661 0.01311514410978065 -0.0027318975882412964 0.0084839130564751102 0.028609861577488193 0.016782972808394633 0.014870349851520187
leaf_weight=83 121 4531 448 56 116 137
leaf_count=83 121 4531 448 56 116 137
internal_value=-1.90531e-06 -0.00109197 -0.00172224 0.0214672 0.0149086 0.0140565
internal_weight=5492 5118 4979 139 374 258
internal_count=5492 5118 4979 139 374 258
is_linear=0
shrinkage=0.131037


Tree=7
num_leaves=8
num_cat=0
split_feature=13 13 6 13 5 1 7
split_gain=63.8896 17.5961 9.18222 6.79275 9.13864 5.24989 2.13822
threshold=3.771500000000001 1.7740000000000002 343.00000000000006 7.4030000000000014 483.00000000000006 490.00000000000006 0.53000000000000014
decision_type=2 2 2 2 2 2 2
left_child=1 5 -3 4 -2 -1 -5
right_child=3 2 -4 6 -6 -7 -8
leaf_value=-0.030045584553768354 0.0084230339929419265 0.022674392359452865 -0.0066263795525440244 0.013990984514611966 0.0314989568225921 -0.013468471375029331 0.035761569169814392
leaf_weight=775 1327 205 1761 98 379 570 377
leaf_count=775 1327 205 1761 98 379 570 377
internal_value=-1.31048e-06 -0.0114725 -0.00356988 0.0174122 0.0135509 -0.0230221 0.031275
internal_weight=5492 3311 1966 2181 1706 1345 475
internal_count=5492 3311 1966 2181 1706 1345 475
is_linear=0
shrinkage=0.131037


Tree=8
num_leaves=7
num_cat=0
split_feature=10 5 6 10 7 6
split_gain=4.33976 4.12736 3.25109 2.26653 2.25365 1.86798
threshold=0.54500000000000004 447.50000000000006 407.00000000000006 0.6100000000000001 1.4850000000000001 425.50000000000006
decision_type=2 2 2 2 2 2
left_child=1 2 -1 -2 -5 -3
right_child=3 5 -4 4 -6 -7
leaf_value=0.010305654481336399 -0.025283662499519844 0.0013697770360602706 -0.010147368275565631 -0.0016203351707459932 -0.014982958407886389 0.0106167695199532
leaf_weight=184 78 556 485 2797 235 1157
leaf_count=184 78 556 485 2797 235 1157
internal_value=-9.65481e-07 0.00420754 -0.00451846 -0.00322509 -0.00265682 0.0076168
internal_weight=5492 2382 669 3110 3032 1713
internal_count=5492 2382 669 3110 3032 1713
is_linear=0
shrinkage=0.131037


Tree=9
num_leaves=8
num_cat=0
split_feature=13 13 11 11 13 13 11
split_gain=50.2551 13.3327 8.48344 7.69784 8.15989 3.11426 0.538528
threshold=2.3775000000000008 4.7055000000000016 480.50000000000006 480.50000000000006 1.0385000000000002 7.4030000000000014 503.50000000000006
decision_type=2 2 2 2 2 2 2
left_child=3 2 -2 4 -1 -3 -5
right_child=1 5 -4 6 -6 -7 -8
leaf_value=-0.026944521945906959 0.0093574248915252317 0.014826387086757669 -0.0084013845489315665 -0.043704055465609092 -0.0060664410766710745 0.027650988335180531 -0.029653937242361896
leaf_weight=449 1187 1036 756 54 1133 475 402
leaf_count=449 1187 1036 756 54 1133 475 402
internal_value=-8.40593e-07 0.00962728 0.00244644 -0.0163197 -0.0119935 0.0188596 -0.0313232
internal_weight=5492 3454 1943 2038 1582 1511 456
internal_count=5492 3454 1943 2038 1582 1511 456
is_linear=0
shrinkage=0.131037


Tree=10
num_leaves=8
num_cat=0
split_feature=13 13 6 5 13 1 13
split_gain=39.7209 11.1593 8.1804 4.6941 5.41969 2.96677 0.311088
threshold=3.8610000000000007 1.5255000000000003 343.00000000000006 538.50000000000011 6.592500000000002 654.50000000000011 4.6705000000000014
decision_type=2 2 2 2 2 2 2
left_child=1 5 -3 4 -2 -1 -5
right_child=3 2 -4 6 -6 -7 -8
leaf_value=-0.022093227343992956 0.007543819426262254 0.01844980368089804 -0.0065360779976712776 0.03398934146415844 0.021809865338573514 0.0034075440063566034 0.048470160068313971
leaf_weight=976 1307 252 2097 56 704 85 50
leaf_count=976 1307 252 2097 56 704 85 50
internal_value=-0.000140621 -0.00889378 -0.00385457 0.0139576 0.0125392 -0.020048 0.0408432
internal_weight=5527 3410 2349 2117 2011 1061 106
internal_count=5527 3410 2349 2117 2011 1061 106
is_linear=0
shrinkage=0.131037


Tree=11
num_leaves=8
num_cat=0
split_feature=13 13 11 1 9 13 7
split_gain=30.6718 9.10182 7.40231 5.83381 4.43127 4.42602 3.36732
threshold=2.1790000000000007 4.3755000000000015 480.50000000000006 557.50000000000011 95.000000000000014 0.89550000000000018 0.51500000000000012
decision_type=2 2 2 2 2 2 2
left_child=3 2 -2 4 -1 -5 -3
right_child=1 6 -4 5 -6 -7 -8
leaf_value=-0.025283356987264621 0.0068809995440539977 -3.4497325190986591e-05 -0.0097714793483301109 -0.02396971726022077 -0.010608915908099257 0.0071343320457196401 0.016134882692612165
leaf_weight=711 1226 260 732 104 704 321 1469
leaf_count=711 1226 260 732 104 704 321 1469
internal_value=-0.000121907 0.00677358 0.00065424 -0.0139404 -0.0179841 -0.000471517 0.013702
internal_weight=5527 3687 1958 1840 1415 425 1729
internal_count=5527 3687 1958 1840 1415 425 1729
is_linear=0
shrinkage=0.131037


Tree=12
num_leaves=8
num_cat=0
split_feature=10 4 4 5 5 0 1
split_gain=3.63347 5.19867 3.797 2.9479 1.84296 1.22785 0.457694
threshold=1.9900000000000002 40.70000000000001 52.150000000000013 538.50000000000011 478.50000000000006 1574.0000000000002 490.00000000000006
decision_type=2 2 2 2 2 2 2
left_child=2 6 3 -1 -3 -4 -2
right_child=1 4 5 -5 -6 -7 -8
leaf_value=-0.0011409498442088554 0.0201195301743789 -0.014777262759319315 0.015135540564595918 0.010928175441668391 -0.0042967277757924105 0.0020546483184538437 0.0070857729393675019
leaf_weight=3188 102 554 432 390 602 173 86
leaf_count=3188 102 554 432 390 602 173 86
internal_value=-0.000105992 -0.00603367 0.00179801 0.000173921 -0.00932148 0.011399 0.0141701
internal_weight=5527 1344 4183 3578 1156 605 188
internal_count=5527 1344 4183 3578 1156 605 188
is_linear=0
shrinkage=0.131037


Tree=13
num_leaves=8
num_cat=0
split_feature=3 4 4 0 0 7 9
split_gain=2.82585 2.2746 2.13136 1.21585 2.26436 1.30075 1.03321
threshold=1.7100000000000002 65.250000000000014 38.70000000000001 650.00000000000011 760.00000000000011 0.89500000000000013 84.600000000000009
decision_type=2 2 2 2 2 2 2
left_child=3 2 -2 5 -5 -1 -3
right_child=1 6 -4 4 -6 -7 -8
leaf_value=0.0074652138935000145 0.0021358595800487824 0.014658746233603958 -0.0044089034459948587 -0.0047881677062965458 0.013070328931877564 0.024589562357244178 0.0013397489331252522
leaf_weight=426 1218 197 2859 340 190 93 204
leaf_count=426 1218 197 2859 340 190 93 204
internal_value=-9.19319e-05 -0.00152643 -0.00245308 0.00602941 0.00160949 0.0105384 0.00788896
internal_weight=5527 4478 4077 1049 530 519 401
internal_count=5527 4478 4077 1049 530 519 401
is_linear=0
shrinkage=0.131037


Tree=14
num_leaves=8
num_cat=0
split_feature=13 2 13 13 2 4 2
split_gain=25.8379 7.87756 8.72885 4.04881 7.67142 2.47569 0.475345
threshold=3.4530000000000007 302.50000000000006 1.5255000000000003 7.096000000000001 302.50000000000006 49.835000000000008 403.00000000000006
decision_type=2 2 2 2 2 2 2
left_child=1 2 -1 4 -2 -5 -3
right_child=3 6 -4 5 -6 -7 -8
leaf_value=-0.01563400236074974 0.011720345163309435 -0.024823966210274679 -0.00048220483355179407 0.026556816774526926 -0.0080378995118450692 0.0086359547090530935 -0.036124518618634346
leaf_weight=1027 1435 157 1793 349 441 214 111
leaf_count=1027 1435 157 1793 349 441 214 111
internal_value=-7.9601e-05 -0.00804248 -0.0060011 0.0100012 0.00707441 0.0197493 -0.0295135
internal_weight=5527 3088 2820 2439 1876 563 268
internal_count=5527 3088 2820 2439 1876 563 268
is_linear=0
shrinkage=0.131037


Tree=15
num_leaves=8
num_cat=0
split_feature=13 2 13 5 13 2 13
split_gain=19.8637 6.43257 8.21644 2.8065 4.04779 1.66168 0.776615
threshold=3.9765000000000001 302.50000000000006 1.9725000000000004 489.00000000000006 6.4695000000000009 140.00000000000003 2.9005000000000005
decision_type=2 2 2 2 2 2 2
left_child=1 2 -1 4 -2 -5 -3
right_child=3 6 -4 5 -6 -7 -8
leaf_value=-0.011070896493387701 0.0028566177395689262 -0.028336802406267021 0.0023188915565366874 0.011060340870756502 0.015699450984700332 0.030248373809304171 -0.015358660613633789
leaf_weight=1509 1000 202 1644 140 729 175 132
leaf_count=1509 1000 202 1644 140 729 175 132
internal_value=9.05295e-05 -0.0059213 -0.0040886 0.0103477 0.00827294 0.021728 -0.023215
internal_weight=5531 3487 3153 2044 1729 315 334
internal_count=5531 3487 3153 2044 1729 315 334
is_linear=0
shrinkage=0.131037


Tree=16
num_leaves=8
num_cat=0
split_feature=13 1 13 13 2 9 4
split_gain=15.2404 6.23274 4.73173 4.05168 6.41502 3.51691 3.32858
threshold=2.6555000000000004 470.00000000000006 0.87550000000000006 5.8015000000000017 302.50000000000006 95.000000000000014 49.835000000000008
decision_type=2 2 2 2 2 2 2
left_child=1 5 -3 4 -2 -1 -5
right_child=3 2 -4 6 -6 -7 -8
leaf_value=-0.018629784185494356 0.0061075590014217493 -0.017959711792268181 0.0044936163195293099 0.017984056480221604 -0.01264478619364944 -0.0046858821313186224 0.0014765107021416405
leaf_weight=876 1804 202 797 689 379 482 302
leaf_count=876 1804 202 797 689 379 482 302
internal_value=7.87234e-05 -0.00790292 -4.41517e-05 0.00600661 0.00285079 -0.0136824 0.0129559
internal_weight=5531 2357 999 3174 2183 1358 991
internal_count=5531 2357 999 3174 2183 1358 991
is_linear=0
shrinkage=0.131037


Tree=17
num_leaves=8
num_cat=0
split_feature=13 11 13 10 13 8 13
split_gain=11.9237 7.04042 5.66587 2.55205 4.65655 2.67033 1.35127
threshold=3.9765000000000001 480.50000000000006 1.1815000000000002 1.9900000000000002 9.2315000000000023 0.12500000000000003 2.9755000000000007
decision_type=2 2 2 2 2 2 2
left_child=1 2 -1 5 -5 -2 -3
right_child=3 6 -4 4 -6 -7 -8
leaf_value=-0.012400967240366191 -0.01406690776083404 -0.01732583740122352 0.0025099768395870263 -0.0043233799040391712 0.022496394796119364 0.012549795720135813 -0.0070414170631577554
leaf_weight=566 68 664 1928 525 141 1310 329
leaf_count=566 68 664 1928 525 141 1310 329
internal_value=6.83501e-05 -0.00458937 -0.000873039 0.00801543 0.00135118 0.0112346 -0.0139208
internal_weight=5531 3487 2494 2044 666 1378 993
internal_count=5531 3487 2494 2044 666 1378 993
is_linear=0
shrinkage=0.131037


Tree=18
num_leaves=8
num_cat=0
split_feature=13 1 10 12 8 11 13
split_gain=9.50956 3.54288 3.50936 4.83386 4.41812 2.02129 1.0341
threshold=2.0845000000000007 654.50000000000011 1.9900000000000002 12.650000000000002 0.24250000000000002 476.50000000000006 1.1105000000000003
decision_type=2 2 2 2 2 2 2
left_child=1 5 4 -4 -2 -1 -3
right_child=2 6 3 -5 -6 -7 -8
leaf_value=-0.0067080246243957963 -0.00030454225235955435 0.0011810688866481889 0.026728018152740309 -0.0053380394345085638 0.010444331027257796 -0.017087132121207538 0.026448351372815357
leaf_weight=1166 1086 53 88 974 1659 446 59
leaf_count=1166 1086 53 88 974 1659 446 59
internal_value=5.9224e-05 -0.00801448 0.00371603 -0.00267868 0.00619091 -0.00958116 0.014513
internal_weight=5531 1724 3807 1062 2745 1612 112
internal_count=5531 1724 3807 1062 2745 1612 112
is_linear=0
shrinkage=0.131037


Tree=19
num_leaves=8
num_cat=0
split_feature=13 1 4 13 13 2 13
split_gain=8.461 4.71689 5.60246 3.50278 2.14587 3.14808 0.297158
threshold=4.0630000000000015 470.00000000000006 52.725000000000009 0.62800000000000011 9.9195000000000011 302.50000000000006 11.150000000000004
decision_type=2 2 2 2 2 2 2
left_child=1 2 -1 -3 5 -2 -6
right_child=4 3 -4 -5 6 -7 -8
leaf_value=-0.010700322773082496 0.0095918317904940004 -0.019636692594258494 0.0055334932936372391 0.0046019937206811697 0.017436412097173282 -0.0018814456323684688 0.029885730340498625
leaf_weight=1795 1222 112 458 1188 80 618 58
leaf_count=1795 1222 112 458 1188 80 618 58
internal_value=5.14092e-05 -0.00377218 -0.00739918 0.00251188 0.00692076 0.00573702 0.0226863
internal_weight=5531 3553 2253 1300 1978 1840 138
internal_count=5531 3553 2253 1300 1978 1840 138
is_linear=0
shrinkage=0.131037


Tree=20
num_leaves=8
num_cat=0
split_feature=13 5 13 6 1 13 4
split_gain=6.72388 3.63101 4.146 2.52029 1.8404 1.1546 0.389791
threshold=2.1790000000000007 538.50000000000011 6.2300000000000013 338.50000000000006 428.00000000000006 0.89550000000000018 44.32500000000001
decision_type=2 2 2 2 2 2 2
left_child=3 2 -2 5 -5 -1 -3
right_child=1 6 -4 4 -6 -7 -8
leaf_value=-0.0099100812962273858 -0.00048230756647909482 0.022355980601535139 0.010158077717564107 -0.014024676884669079 -0.0048593210132297903 0.010155612340463379 0.011807723198140533
leaf_weight=65 2622 156 827 625 948 202 100
leaf_count=65 2622 156 827 625 948 202 100
internal_value=-2.84804e-05 0.00318675 0.00206836 -0.0065039 -0.00850252 0.00526177 0.018245
internal_weight=5545 3705 3449 1840 1573 267 256
internal_count=5545 3705 3449 1840 1573 267 256
is_linear=0
shrinkage=0.131037


Tree=21
num_leaves=8
num_cat=0
split_feature=13 2 9 7 7 8 13
split_gain=5.37132 4.61165 3.94167 2.17104 2.42055 1.69774 0.568989
threshold=4.8735000000000008 302.50000000000006 95.000000000000014 0.51500000000000012 1.3750000000000002 0.34500000000000003 3.0725000000000002
decision_type=2 2 2 2 2 2 2
left_child=1 2 -1 5 -5 -2 -3
right_child=3 6 -4 4 -6 -7 -8
leaf_value=-0.004806371580590647 -0.011728569684071596 -0.020063223006608323 0.0038117659501443225 0.016305202492454162 0.0043099219258330703 0.013979886073617085 -0.010505329878618484
leaf_weight=2026 166 214 1656 481 725 60 217
leaf_count=2026 166 214 1656 481 725 60 217
internal_value=-2.46909e-05 -0.00243157 -0.000929672 0.0068867 0.0090961 -0.00489274 -0.0152566
internal_weight=5545 4113 3682 1432 1206 226 431
internal_count=5545 4113 3682 1432 1206 226 431
is_linear=0
shrinkage=0.131037


Tree=22
num_leaves=8
num_cat=0
split_feature=13 4 1 1 13 10 13
split_gain=4.77265 3.10189 3.6179 1.9852 1.15725 1.12176 0.50599
threshold=2.0845000000000007 65.250000000000014 470.00000000000006 654.50000000000011 3.0725000000000002 0.78500000000000014 1.1105000000000003
decision_type=2 2 2 2 2 2 2
left_child=3 2 -2 5 -3 -1 -5
right_child=1 4 -4 6 -6 -7 -8
leaf_value=-0.0036182971228276729 -0.00070998246161950527 0.0042668709386725042 0.0095923251656359725 0.0018356284551050489 0.021226369829827046 -0.01053751112312331 0.019442675682937186
leaf_weight=848 2770 107 742 54 197 768 59
leaf_count=848 2770 107 742 54 197 768 59
internal_value=-2.13999e-05 0.00256589 0.00146597 -0.00573307 0.015265 -0.00690812 0.0110499
internal_weight=5545 3816 3512 1729 304 1616 113
internal_count=5545 3816 3512 1729 304 1616 113
is_linear=0
shrinkage=0.131037


Tree=23
num_leaves=8
num_cat=0
split_feature=13 2 11 7 10 8 2
split_gain=3.87212 3.54505 3.33441 1.57086 1.90308 1.27694 0.461592
threshold=4.8735000000000008 302.50000000000006 483.50000000000006 0.51500000000000012 3.7000000000000006 0.34500000000000003 403.00000000000006
decision_type=2 2 2 2 2 2 2
left_child=1 2 -1 5 -5 -2 -3
right_child=3 6 -4 4 -6 -7 -8
leaf_value=0.0017813217782080872 -0.010098676269181803 -0.0092573520782368302 -0.0068985981685529664 0.01138932925658385 0.00032009111472062574 0.012196100873812326 -0.017885186586344481
leaf_weight=2610 166 229 1072 807 399 60 202
leaf_count=2610 166 229 1072 807 399 60 202
internal_value=-1.84252e-05 -0.00206206 -0.000745161 0.00584964 0.00772909 -0.00416914 -0.0133066
internal_weight=5545 4113 3682 1432 1206 226 431
internal_count=5545 4113 3682 1432 1206 226 431
is_linear=0
shrinkage=0.131037


Tree=24
num_leaves=7
num_cat=0
split_feature=13 2 9 8 13 10
split_gain=3.67052 3.79135 3.13523 1.23799 1.18172 1.16959
threshold=1.5865000000000002 101.00000000000001 95.000000000000014 0.19500000000000003 0.78250000000000008 0.9900000000000001
decision_type=2 2 2 2 2 2
left_child=3 -2 -3 5 -5 -1
right_child=1 2 -4 4 -6 -7
leaf_value=0.020011200300102439 0.031511552026862726 -0.00150607134915044 0.0057828972200487452 -0.016311076832965926 -0.0056851729379421012 -0.0066404097816702892
leaf_weight=55 72 2736 1609 234 781 58
leaf_count=55 72 2736 1609 234 781 58
internal_value=-1.59557e-05 0.00168734 0.00119257 -0.00668778 -0.00813726 0.00631076
internal_weight=5545 4417 4345 1128 1015 113
internal_count=5545 4417 4345 1128 1015 113
is_linear=0
shrinkage=0.131037


Tree=25
num_leaves=8
num_cat=0
split_feature=13 10 12 4 4 13 9
split_gain=3.42905 4.40517 4.82144 3.1325 0.776138 0.777757 0.320126
threshold=7.8660000000000014 1.7450000000000003 12.650000000000002 51.735000000000007 49.835000000000008 10.470500000000003 110.50000000000001
decision_type=2 2 2 2 2 2 2
left_child=1 3 -3 -1 6 -6 -2
right_child=4 2 -4 -5 5 -7 -8
leaf_value=-0.0004219526798957028 0.014054994062421628 0.010442703674768525 -0.011114270751951736 0.0096012101308606355 -0.0010252563547191937 0.017623384797579959 0.025625063655245046
leaf_weight=3222 155 213 1086 642 113 58 57
leaf_count=3222 155 213 1086 642 113 58 57
internal_value=-8.81051e-05 -0.000975975 -0.00757768 0.00124278 0.0118745 0.00528629 0.0171773
internal_weight=5546 5163 1299 3864 383 171 212
internal_count=5546 5163 1299 3864 383 171 212
is_linear=0
shrinkage=0.131037


Tree=26
num_leaves=8
num_cat=0
split_feature=13 2 2 4 5 13 9
split_gain=3.43564 2.34327 3.28238 2.29264 2.60597 1.33665 0.815886
threshold=2.7615000000000007 101.00000000000001 125.00000000000001 65.250000000000014 538.50000000000011 1.8255000000000003 87.000000000000014
decision_type=2 2 2 2 2 2 2
left_child=1 5 -3 4 -2 -1 -5
right_child=3 2 -4 6 -6 -7 -8
leaf_value=0.0031384484628841879 0.00078376823632757178 -0.019192513645366491 -0.0030133661715532468 0.024179587799529698 0.016516967441674479 0.030408120489805776 0.0081532368757497205
leaf_weight=84 2658 240 2101 104 194 49 116
leaf_count=84 2658 240 2101 104 194 49 116
internal_value=-7.63882e-05 -0.0037111 -0.00467309 0.00285001 0.00185482 0.0132034 0.0157403
internal_weight=5546 2474 2341 3072 2852 133 220
internal_count=5546 2474 2341 3072 2852 133 220
is_linear=0
shrinkage=0.131037


Tree=27
num_leaves=8
num_cat=0
split_feature=13 2 13 4 13 5 7
split_gain=2.85488 3.25141 2.75497 1.60455 1.36737 1.26092 0.817376
threshold=6.2300000000000013 302.50000000000006 1.0385000000000002 49.835000000000008 9.4465000000000021 454.79000000000002 0.53000000000000014
decision_type=2 2 2 2 2 2 2
left_child=1 2 -1 6 -5 -3 -2
right_child=3 5 -4 4 -6 -7 -8
leaf_value=-0.0090844181548368434 0.00031164313974261858 -0.026857844146290524 0.0012672307122667823 -0.0083383265963598054 0.01092804962802694 -0.0081286587447664243 0.013353972402912339
leaf_weight=503 101 70 3608 172 100 532 460
leaf_count=503 101 70 3608 172 100 532 460
internal_value=-6.60948e-05 -0.00131641 7.65224e-08 0.00700518 -0.00124634 -0.0103105 0.0110101
internal_weight=5546 4713 4111 833 272 602 561
internal_count=5546 4713 4111 833 272 602 561
is_linear=0
shrinkage=0.131037


Tree=28
num_leaves=7
num_cat=0
split_feature=6 6 1 5 4 1
split_gain=1.87216 2.10045 2.30949 1.4091 0.547658 0.218357
threshold=338.50000000000006 347.50000000000006 470.00000000000006 319.00000000000006 44.085000000000008 490.00000000000006
decision_type=2 2 2 2 2 2
left_child=3 5 -3 -1 -5 -2
right_child=1 2 -4 4 -6 -7
leaf_value=-0.010524624707286526 -0.0064671490870762734 -0.001752990518885794 0.0049018860761070654 0.015437420728172018 0.0054070600501918325 -0.014021694042152835
leaf_weight=60 101 3617 1190 215 167 196
leaf_count=60 101 3617 1190 215 167 196
internal_value=-5.73793e-05 -0.000766295 -0.000105043 0.00812342 0.0110587 -0.0114607
internal_weight=5546 5104 4807 442 382 297
internal_count=5546 5104 4807 442 382 297
is_linear=0
shrinkage=0.131037


Tree=29
num_leaves=8
num_cat=0
split_feature=13 2 2 13 5 13 13
split_gain=2.64006 2.10592 2.90357 1.472 1.36703 1.48404 0.0902823
threshold=3.2705000000000006 101.00000000000001 125.00000000000001 1.8880000000000003 538.50000000000011 9.9195000000000011 4.5705000000000009
decision_type=2 2 2 2 2 2 2
left_child=1 3 -3 -1 5 -2 -6
right_child=4 2 -4 -5 6 -7 -8
leaf_value=0.0020598504553922454 0.0014437239684456204 -0.015725188945737437 -0.0020766854698358178 0.0293293898362651 0.012621195311829687 0.015338434637820454 0.019459744221505291
leaf_weight=87 2323 300 2489 56 97 140 54
leaf_count=87 2323 300 2489 56 97 140 54
internal_value=-4.98608e-05 -0.00274978 -0.00354566 0.0127557 0.00297761 0.00223449 0.0150827
internal_weight=5546 2932 2789 143 2614 2463 151
internal_count=5546 2932 2789 143 2614 2463 151
is_linear=0
shrinkage=0.131037


Tree=30
num_leaves=8
num_cat=0
split_feature=10 0 8 1 9 10 0
split_gain=2.07752 3.19704 1.69849 2.96387 1.56929 1.20244 0.341619
threshold=1.9900000000000002 1190.0000000000002 0.40000000000000008 403.00000000000006 57.500000000000007 0.84000000000000008 1512.0000000000002
decision_type=2 2 2 2 2 2 2
left_child=2 4 5 -4 -2 -1 -3
right_child=1 6 3 -5 -6 -7 -8
leaf_value=-0.0042158489823831439 -0.025578984953682889 0.018511794334962063 -0.0022663043803351521 0.0079277151125652576 -0.0054834528264763246 0.002045740124976856 0.0051420102294554701
leaf_weight=1078 71 95 782 1309 1130 1029 51
leaf_count=1078 71 95 782 1309 1130 1029 51
internal_value=3.09434e-05 -0.00444631 0.00146811 0.00411418 -0.00667347 -0.00115674 0.0138579
internal_weight=5545 1347 4198 2091 1201 2107 146
internal_count=5545 1347 4198 2091 1201 2107 146
is_linear=0
shrinkage=0.131037


Tree=31
num_leaves=6
num_cat=0
split_feature=13 1 5 8 13
split_gain=2.36633 1.70922 2.14205 1.20297 0.693663
threshold=1.3245000000000002 654.50000000000011 449.00000000000006 0.19500000000000003 0.52950000000000019
decision_type=2 2 2 2 2
left_child=3 2 -2 -1 -5
right_child=1 -3 -4 4 -6
leaf_value=0.007407054986943962 -0.002951015903946978 0.022439547002149812 0.0029466164740422295 -0.019710448466383854 -0.0067725063512410937
leaf_weight=96 1629 64 3013 80 663
leaf_count=96 1629 64 3013 80 663
internal_value=2.68324e-05 0.00117024 0.00087647 -0.00638374 -0.00816881
internal_weight=5545 4706 4642 839 743
internal_count=5545 4706 4642 839 743
is_linear=0
shrinkage=0.131037


Tree=32
num_leaves=8
num_cat=0
split_feature=4 11 0 5 5 6 4
split_gain=1.69626 4.18076 2.73962 2.36376 3.72261 2.83166 0.320678
threshold=37.800000000000004 483.50000000000006 475.00000000000006 447.50000000000006 458.00000000000006 407.00000000000006 34.720000000000006
decision_type=2 2 2 2 2 2 2
left_child=1 2 -1 5 -5 -2 -3
right_child=3 6 -4 4 -6 -7 -8
leaf_value=-0.0073060236484902069 0.015136144619780224 -0.0034301862041277308 0.014172513684734912 0.019694776832409191 -0.00017051603481601667 -0.0068572140424248912 -0.014087170500022273
leaf_weight=122 108 493 617 173 2538 1440 54
leaf_count=122 108 493 617 173 2538 1440 54
internal_value=2.32604e-05 0.00419453 0.0106234 -0.00123569 0.00109631 -0.00532124 -0.00448664
internal_weight=5545 1286 739 4259 2711 1548 547
internal_count=5545 1286 739 4259 2711 1548 547
is_linear=0
shrinkage=0.131037


Tree=33
num_leaves=7
num_cat=0
split_feature=13 2 13 13 2 1
split_gain=2.53204 1.48458 1.23101 1.19707 2.56029 0.8526
threshold=2.5790000000000006 403.00000000000006 0.62800000000000011 7.5770000000000008 302.50000000000006 453.50000000000006
decision_type=2 2 2 2 2 2
left_child=1 2 -1 4 -2 -5
right_child=3 -3 -4 5 -6 -7
leaf_value=-0.013196203653519615 0.0034654618297732024 -0.025203341161506819 -0.0018937563905708367 0.0062433005998399236 -0.0061272453031079154 0.022142168759071233
leaf_weight=180 2202 52 2065 367 610 69
leaf_count=180 2202 52 2065 367 610 69
internal_value=2.00452e-05 -0.00330924 -0.00280104 0.00237526 0.00138369 0.00876495
internal_weight=5545 2297 2245 3248 2812 436
internal_count=5545 2297 2245 3248 2812 436
is_linear=0
shrinkage=0.131037


Tree=34
num_leaves=8
num_cat=0
split_feature=13 9 6 9 4 4 9
split_gain=2.03143 1.73276 2.3168 2.22773 1.3357 1.13173 0.497867
threshold=3.6685000000000003 89.500000000000014 445.50000000000006 72.500000000000014 61.500000000000007 54.650000000000006 87.000000000000014
decision_type=2 2 2 2 2 2 2
left_child=1 3 -3 -1 5 -2 -6
right_child=4 2 -4 -5 6 -7 -8
leaf_value=-0.0014173859798700429 0.0027008469223432792 0.0066200851773532748 -0.0030818060949646979 -0.011904191279180215 0.025285378068668134 -0.017240231660694775 0.0087880286685146271
leaf_weight=917 2106 689 1093 561 56 50 73
leaf_count=917 2106 689 1093 561 56 50 73
internal_value=1.73055e-05 -0.00208207 0.000668046 -0.00539945 0.00301352 0.00223727 0.0159684
internal_weight=5545 3260 1782 1478 2285 2156 129
internal_count=5545 3260 1782 1478 2285 2156 129
is_linear=0
shrinkage=0.131037


Tree=35
num_leaves=8
num_cat=0
split_feature=13 9 10 2 11 7 13
split_gain=1.97346 1.72936 2.98991 1.97316 1.12392 0.959113 0.148355
threshold=5.6835000000000013 89.500000000000014 1.5200000000000002 403.00000000000006 547.50000000000011 0.51500000000000012 7.1705000000000014
decision_type=2 2 2 2 2 2 2
left_child=1 2 -1 -3 5 -2 -6
right_child=4 3 -4 -5 6 -7 -8
leaf_value=-0.0012404491220884399 -0.00590914371455044 0.0022783228299936092 -0.012696296717266646 -0.013364877598545252 0.012647708791227851 0.0053192728942998502 0.021561886056271913
leaf_weight=1704 159 2140 508 148 101 728 49
leaf_count=1704 159 2140 508 148 101 728 49
internal_value=-7.16297e-05 -0.00125961 -0.00387244 0.00126539 0.00508126 0.00330383 0.0155758
internal_weight=5537 4500 2212 2288 1037 887 150
internal_count=5537 4500 2212 2288 1037 887 150
is_linear=0
shrinkage=0.131037


Tree=36
num_leaves=8
num_cat=0
split_feature=4 11 9 5 5 11 4
split_gain=1.09169 3.2792 2.24712 1.91154 2.91386 2.08299 0.228863
threshold=37.800000000000004 483.50000000000006 47.500000000000007 447.50000000000006 458.00000000000006 471.00000000000006 34.720000000000006
decision_type=2 2 2 2 2 2 2
left_child=1 2 -1 5 -5 -2 -3
right_child=3 6 -4 4 -6 -7 -8
leaf_value=-0.0025053895127187475 -0.0088836986884344854 -0.0035278688150221587 0.013538559738894009 0.017279504630311717 -0.00010953169209129041 0.00084317639981402266 -0.012468995581921839
leaf_weight=209 889 487 528 177 2535 657 55
leaf_count=209 889 487 528 177 2535 657 55
internal_value=-6.21869e-05 0.00329455 0.00898557 -0.00107103 0.00102451 -0.00474856 -0.00443961
internal_weight=5537 1279 737 4258 2712 1546 542
internal_count=5537 1279 737 4258 2712 1546 542
is_linear=0
shrinkage=0.131037


Tree=37
num_leaves=6
num_cat=0
split_feature=13 2 10 13 1
split_gain=2.08418 1.58802 1.50249 0.776914 0.573056
threshold=1.5865000000000002 101.00000000000001 4.1000000000000005 0.45150000000000007 654.50000000000011
decision_type=2 2 2 2 2
left_child=3 -2 -3 -1 -5
right_child=1 2 -4 4 -6
leaf_value=-0.018985961676939427 0.020013606698315145 0.00055849840407880833 0.018155134715611452 -0.0050824316221814349 0.0064364109067995027
leaf_weight=65 76 4243 85 988 80
leaf_count=65 76 4243 85 988 80
internal_value=-5.4094e-05 0.00123496 0.000904646 -0.00506677 -0.00421736
internal_weight=5537 4404 4328 1133 1068
internal_count=5537 4404 4328 1133 1068
is_linear=0
shrinkage=0.131037


Tree=38
num_leaves=8
num_cat=0
split_feature=13 4 4 10 12 3 6
split_gain=1.75465 1.35001 1.2197 0.915249 1.72185 0.99156 0.482325
threshold=2.7615000000000007 65.250000000000014 54.650000000000006 1.5850000000000002 12.650000000000002 3.6350000000000002 784.00000000000011
decision_type=2 2 2 2 2 2 2
left_child=3 2 -2 5 -5 -1 -3
right_child=1 6 -4 4 -6 -7 -8
leaf_value=-0.00038873279329035932 0.0016891574705357687 0.016158722914178348 -0.016331208932924893 0.0033215105295586458 -0.012822379843193015 -0.010450934917071331 0.0031725311607110267
leaf_weight=1760 2786 149 66 168 348 186 74
leaf_count=1760 2786 149 66 168 348 186 74
internal_value=-4.6836e-05 0.00203998 0.00127129 -0.0026542 -0.00756164 -0.00135172 0.0118601
internal_weight=5537 3075 2852 2462 516 1946 223
internal_count=5537 3075 2852 2462 516 1946 223
is_linear=0
shrinkage=0.131037


Tree=39
num_leaves=7
num_cat=0
split_feature=13 8 10 1 2 4
split_gain=1.61591 1.55837 1.42025 1.01912 1.37485 0.622901
threshold=5.1820000000000013 2.7500000000000004 1.9350000000000003 453.50000000000006 176.00000000000003 41.20000000000001
decision_type=2 2 2 2 2 2
left_child=1 2 -1 4 -2 -5
right_child=3 -3 -4 5 -6 -7
leaf_value=0.00036481601767777917 0.0094843250022845667 -0.019487801478703517 -0.0054600950594938212 0.0023097893704704547 -0.0017052184231476043 0.013787268769132421
leaf_weight=3283 271 79 920 123 619 242
leaf_count=3283 271 79 920 123 619 242
internal_value=-4.06434e-05 -0.00125296 -0.000909644 0.00409384 0.00169928 0.00992606
internal_weight=5537 4282 4203 1255 890 365
internal_count=5537 4282 4203 1255 890 365
is_linear=0
shrinkage=0.131037


Tree=40
num_leaves=7
num_cat=0
split_feature=13 2 13 5 13 2
split_gain=1.47103 1.6023 1.72684 1.21746 0.478342 0.338163
threshold=8.0770000000000017 302.50000000000006 1.4935000000000003 454.79000000000002 10.792500000000002 290.00000000000006
decision_type=2 2 2 2 2 2
left_child=1 2 -1 -3 5 -2
right_child=4 3 -4 -5 -6 -7
leaf_value=-0.004223391926112945 0.015460648309890537 -0.018833391643394638 0.0019902621307042456 -0.0037821580526538091 0.017404913175733915 0.0034581132699589259
leaf_weight=994 50 106 3376 720 79 213
leaf_count=994 50 106 3376 720 79 213
internal_value=0.000123908 -0.000423566 0.00057636 -0.00571659 0.00844857 0.0057491
internal_weight=5538 5196 4370 826 342 263
internal_count=5538 5196 4370 826 342 263
is_linear=0
shrinkage=0.131037


Tree=41
num_leaves=7
num_cat=0
split_feature=13 9 0 7 9 13
split_gain=1.24317 1.26153 1.82978 1.50223 0.467838 0.208286
threshold=0.94750000000000012 95.000000000000014 1725.0000000000002 3.1000000000000005 155.00000000000003 0.48950000000000005
decision_type=2 2 2 2 2 2
left_child=4 2 -2 -3 5 -1
right_child=1 3 -4 -5 -6 -7
leaf_value=-0.015517923608785395 -0.0013426288644101698 0.0039869696401064001 0.023923286059148688 -0.015831511578861937 0.0045786353384535215 -0.0069853363087726108
leaf_weight=59 3108 1884 50 68 55 314
leaf_count=59 3108 1884 50 68 55 314
internal_value=0.000107672 0.000676288 -0.00094183 0.00329534 -0.00667559 -0.00834145
internal_weight=5538 5110 3158 1952 428 373
internal_count=5538 5110 3158 1952 428 373
is_linear=0
shrinkage=0.131037


Tree=42
num_leaves=8
num_cat=0
split_feature=13 10 12 4 4 13 7
split_gain=1.16151 1.31 2.84055 1.55788 0.627876 0.531378 0.506849
threshold=6.7830000000000013 1.7450000000000003 12.650000000000002 51.115000000000002 49.835000000000008 9.2315000000000023 0.53000000000000014
decision_type=2 2 2 2 2 2 2
left_child=1 3 -3 -1 6 -6 -2
right_child=4 2 -4 -5 5 -7 -8
leaf_value=-0.00069894368963237512 -0.0011776889578866646 0.0091175850500341844 -0.0074370626698879354 0.0061058075059496845 -0.0057974205873706696 0.0067143659619056427 0.010582047119194957
leaf_weight=2989 77 218 967 716 128 107 336
leaf_count=2989 77 218 967 716 128 107 336
internal_value=9.34506e-05 -0.000596932 -0.00438955 0.000615453 0.00530693 -9.04555e-05 0.00838381
internal_weight=5538 4890 1185 3705 648 235 413
internal_count=5538 4890 1185 3705 648 235 413
is_linear=0
shrinkage=0.131037


Tree=43
num_leaves=8
num_cat=0
split_feature=13 5 4 6 5 4 4
split_gain=1.0877 0.863289 0.931251 0.743708 2.37454 1.61802 0.318343
threshold=2.4790000000000005 538.50000000000011 65.250000000000014 445.50000000000006 501.00000000000006 40.70000000000001 44.32500000000001
decision_type=2 2 2 2 2 2 2
left_child=3 2 -2 4 -1 -5 -3
right_child=1 6 -4 5 -6 -7 -8
leaf_value=0.0019013354029815954 0.00033579786095459016 0.013601826959652685 0.008672522628921351 0.0021406699210167238 -0.017599140282498552 -0.0089780926598263568 0.0034378564883131278
leaf_weight=1083 2897 131 250 354 119 614 90
leaf_count=1083 2897 131 250 354 119 614 90
internal_value=8.11499e-05 0.00155563 0.000998833 -0.00220626 -2.73e-05 -0.00490949 0.00947347
internal_weight=5538 3368 3147 2170 1202 968 221
internal_count=5538 3368 3147 2170 1202 968 221
is_linear=0
shrinkage=0.131037


Tree=44
num_leaves=7
num_cat=0
split_feature=13 8 11 11 7 11
split_gain=0.970039 1.2062 1.20416 0.657662 1.18891 0.230177
threshold=4.7715000000000014 2.7500000000000004 480.50000000000006 645.50000000000011 0.51500000000000012 856.50000000000011
decision_type=2 2 2 2 2 2
left_child=1 2 -1 4 -2 -5
right_child=3 -3 -4 5 -6 -7
leaf_value=0.00085319188619357739 -0.007313024668541156 -0.017911605529920646 -0.0040722513716699655 0.018840314899970508 0.0037042613751988537 0.0069465646835037299
leaf_weight=2739 196 71 1237 53 1181 61
leaf_count=2739 196 71 1237 53 1181 61
internal_value=7.06849e-05 -0.00098153 -0.0006786 0.00292829 0.00213435 0.0124972
internal_weight=5538 4047 3976 1491 1377 114
internal_count=5538 4047 3976 1491 1377 114
is_linear=0
shrinkage=0.131037


Tree=45
num_leaves=8
num_cat=0
split_feature=4 11 0 4 5 9 1
split_gain=0.762692 2.80204 1.85586 1.30564 1.79731 0.211011 0.190679
threshold=37.800000000000004 483.50000000000006 475.00000000000006 38.050000000000004 447.50000000000006 78.000000000000014 490.00000000000006
decision_type=2 2 2 2 2 2 2
left_child=1 2 -1 6 -5 -3 -2
right_child=3 5 -4 4 -6 -7 -8
leaf_value=-0.0069426133333704903 -0.0049086690248807928 -0.0019813640980370778 0.011063093467418635 -0.0037385159364747519 0.0019814666898425792 -0.0071834020293859843 -0.01220221644450656
leaf_weight=117 97 310 610 1536 2444 238 175
leaf_count=117 97 310 610 1536 2444 238 175
internal_value=1.61429e-05 0.0028276 0.00816206 -0.000826341 -0.000225449 -0.004245 -0.00961
internal_weight=5527 1275 727 4252 3980 548 272
internal_count=5527 1275 727 4252 3980 548 272
is_linear=0
shrinkage=0.131037


Tree=46
num_leaves=7
num_cat=0
split_feature=13 1 8 4 13 8
split_gain=1.12501 0.873623 1.14742 1.1435 0.220167 0.212879
threshold=0.75250000000000006 390.50000000000006 0.45000000000000007 38.70000000000001 0.45150000000000007 0.22500000000000003
decision_type=2 2 2 2 2 2
left_child=4 3 -3 -2 -1 -6
right_child=1 2 -4 -5 5 -7
leaf_value=-0.015105869287293244 0.0014696190360054717 -0.00041463025020732505 0.0044114619237272416 -0.0051159779917689073 0.0012876550048416954 -0.0085964438358058799
leaf_weight=63 885 1969 1482 926 49 153
leaf_count=63 885 1969 1482 926 49 153
internal_value=1.37449e-05 0.000433718 0.0016572 -0.00189642 -0.00831647 -0.00618708
internal_weight=5527 5262 3451 1811 265 202
internal_count=5527 5262 3451 1811 265 202
is_linear=0
shrinkage=0.131037


Tree=47
num_leaves=7
num_cat=0
split_feature=13 10 12 2 13 4
split_gain=0.996235 1.05712 1.95095 1.03541 0.215702 0.0637658
threshold=9.4465000000000021 1.9900000000000002 12.650000000000002 176.00000000000003 11.150000000000004 49.835000000000008
decision_type=2 2 2 2 2 2
left_child=1 3 -3 -1 5 -2
right_child=4 2 -4 -5 -6 -7
leaf_value=-0.0021130718160039326 0.0097331328188446121 0.0077358912349816912 -0.0061227470791585187 0.002223605093974478 0.016086107354600129 0.0036498185513828239
leaf_weight=1464 55 211 1003 2667 59 68
leaf_count=1464 55 211 1003 2667 59 68
internal_value=1.18301e-05 -0.000312375 -0.00371207 0.00068614 0.00954606 0.00638943
internal_weight=5527 5345 1214 4131 182 123
internal_count=5527 5345 1214 4131 182 123
is_linear=0
shrinkage=0.131037


Tree=48
num_leaves=8
num_cat=0
split_feature=13 6 5 8 13 1 7
split_gain=1.00914 1.02372 0.919244 0.893521 0.46134 0.47597 0.0885316
threshold=2.0255000000000005 343.00000000000006 375.00000000000006 0.23250000000000001 0.52950000000000019 654.50000000000011 0.64000000000000012
decision_type=2 2 2 2 2 2 2
left_child=4 2 -2 -3 6 -6 -1
right_child=1 3 -4 -5 5 -7 -8
leaf_value=-0.015255112310834457 -0.0046616201496798718 -0.0021443265866170846 0.015778109926606176 0.0021542251994152908 -0.0027159638212971211 0.0068055695132673098 -0.0075467372494128302
leaf_weight=48 51 1265 144 2415 1449 96 59
leaf_count=48 51 1265 144 2415 1449 96 59
internal_value=1.03942e-05 0.00116693 0.0104202 0.000675953 -0.00270097 -0.00212279 -0.0110271
internal_weight=5527 3875 195 3680 1652 1545 107
internal_count=5527 3875 195 3680 1652 1545 107
is_linear=0
shrinkage=0.131037


Tree=49
num_leaves=8
num_cat=0
split_feature=13 5 8 1 7 7 7
split_gain=0.905813 0.914467 1.56673 1.43657 0.705666 0.997115 0.920168
threshold=4.0630000000000015 421.00000000000006 0.23250000000000001 595.00000000000011 1.3750000000000002 0.54500000000000015 2.8200000000000003
decision_type=2 2 2 2 2 2 2
left_child=1 3 -3 -1 5 -2 -6
right_child=4 2 -4 -5 6 -7 -8
leaf_value=-0.006940629923594459 0.00033085718201809623 -0.006021655323300781 0.0016749794587647697 0.0082401349011228583 -0.0019292985930179029 0.0084108262945231157 0.010691482802914294
leaf_weight=777 500 582 2067 124 811 553 113
leaf_count=777 500 582 2067 124 811 553 113
internal_value=8.86291e-06 -0.00124258 -1.51218e-05 -0.00484873 0.00225721 0.00457645 -0.000383257
internal_weight=5527 3550 2649 901 1977 1053 924
internal_count=5527 3550 2649 901 1977 1053 924
is_linear=0
shrinkage=0.131037


Tree=50
num_leaves=8
num_cat=0
split_feature=13 9 2 7 6 13 4
split_gain=0.883401 0.890453 1.2616 1.22761 0.760845 0.889751 0.331633
threshold=5.8015000000000017 89.500000000000014 101.00000000000001 3.1000000000000005 453.00000000000006 8.8100000000000041 42.600000000000009
decision_type=2 2 2 2 2 2 2
left_child=1 2 -1 -3 6 -6 -2
right_child=4 3 -4 -5 5 -7 -8
leaf_value=0.009391082191664497 0.0067008528784611564 0.0015745602426012113 -0.0034567078716494708 -0.016170726151983717 -0.0026373302386981123 0.0074775069646715103 0.017556154734693703
leaf_weight=140 278 2222 2077 69 422 231 59
leaf_count=140 278 2222 2077 69 422 231 59
internal_value=6.09019e-06 -0.000771868 -0.00264431 0.00103906 0.00355094 0.000937192 0.00860849
internal_weight=5498 4508 2217 2291 990 653 337
internal_count=5498 4508 2217 2291 990 653 337
is_linear=0
shrinkage=0.131037


Tree=51
num_leaves=7
num_cat=0
split_feature=13 0 0 4 9 9
split_gain=0.747259 1.08717 0.725952 0.584807 0.616633 0.235149
threshold=3.2705000000000006 2117.5000000000005 1725.0000000000002 61.500000000000007 95.000000000000014 87.000000000000014
decision_type=2 2 2 2 2 2
left_child=1 2 -1 4 -2 -5
right_child=3 -3 -4 5 -6 -7
leaf_value=-0.0015869714598997821 -0.00028033531152415656 -0.020597843403345924 0.0079593524395626357 0.014235814163868142 0.004278233692324618 0.0045554802419124083
leaf_weight=2705 1695 50 144 79 728 97
leaf_count=2705 1695 50 144 79 728 97
internal_value=5.34983e-06 -0.00144068 -0.00110362 0.00161921 0.00108833 0.00891425
internal_weight=5498 2899 2849 2599 2423 176
internal_count=5498 2899 2849 2599 2423 176
is_linear=0
shrinkage=0.131037


Tree=52
num_leaves=7
num_cat=0
split_feature=7 10 8 1 4 8
split_gain=0.662036 1.0604 0.760086 0.757791 1.00482 0.713943
threshold=1.4550000000000003 4.2500000000000009 0.84500000000000008 490.00000000000006 41.20000000000001 0.21500000000000002
decision_type=2 2 2 2 2 2
left_child=1 2 -1 5 -5 -2
right_child=3 -3 -4 4 -6 -7
leaf_value=0.00010350745203804766 -0.016423870989154234 0.020139225157247628 0.0063424394810024879 0.018762290740219435 0.00017769165205786056 -0.0029090594997729291
leaf_weight=3326 71 49 373 58 362 1259
leaf_count=3326 71 49 373 58 362 1259
internal_value=4.64929e-06 0.000987626 0.000733274 -0.00209925 0.00274988 -0.00363234
internal_weight=5498 3748 3699 1750 420 1330
internal_count=5498 3748 3699 1750 420 1330
is_linear=0
shrinkage=0.131037


Tree=53
num_leaves=8
num_cat=0
split_feature=10 0 2 6 2 7 9
split_gain=0.502941 1.07726 0.853662 1.86259 0.818194 0.551746 0.131633
threshold=1.5200000000000002 1190.0000000000002 176.00000000000003 445.50000000000006 101.00000000000001 1.9850000000000001 123.50000000000001
decision_type=2 2 2 2 2 2 2
left_child=2 5 4 -4 -1 -2 -3
right_child=1 6 3 -5 -6 -7 -8
leaf_value=0.0077008888554117123 -0.0022548796182266539 0.012041324724103991 0.0077120309382002986 -0.00010036011824536332 -0.0028654615924289723 -0.0119422559108788 0.0040292225675499114
leaf_weight=140 1395 87 754 1716 1236 109 61
leaf_count=140 1395 87 754 1716 1236 109 61
internal_value=4.15463e-06 -0.00190769 0.000825981 0.00228352 -0.00178866 -0.00295855 0.00875519
internal_weight=5498 1652 3846 2470 1376 1504 148
internal_count=5498 1652 3846 2470 1376 1504 148
is_linear=0
shrinkage=0.131037


Tree=54
num_leaves=8
num_cat=0
split_feature=13 7 7 8 6 13 0
split_gain=0.829481 0.624261 1.85435 0.857652 0.517989 0.585653 0.0637752
threshold=6.5385000000000009 1.3750000000000002 1.3250000000000004 0.40000000000000008 453.00000000000006 8.8100000000000041 862.00000000000011
decision_type=2 2 2 2 2 2 2
left_child=1 2 -1 -3 6 -6 -2
right_child=4 3 -4 -5 5 -7 -8
leaf_value=-0.00018169772476130154 0.012505861529745619 -0.0073481315065580394 0.016834055062678155 -0.00070523544154301517 -0.0018779065305555003 0.0069347961876813401 0.0076615717993069946
leaf_weight=3105 90 485 114 1073 294 231 106
leaf_count=3105 90 485 114 1073 294 231 106
internal_value=3.55446e-06 -0.000621311 0.000420185 -0.00277468 0.00414689 0.00199518 0.00989822
internal_weight=5498 4777 3219 1558 721 525 196
internal_count=5498 4777 3219 1558 721 525 196
is_linear=0
shrinkage=0.131037


Tree=55
num_leaves=8
num_cat=0
split_feature=4 11 0 4 5 6 4
split_gain=0.529516 1.68847 1.14549 1.01068 1.81815 1.62095 0.166245
threshold=37.800000000000004 483.50000000000006 475.00000000000006 43.45000000000001 419.00000000000006 453.00000000000006 33.945000000000007
decision_type=2 2 2 2 2 2 2
left_child=1 2 -1 4 -2 -5 -3
right_child=3 6 -4 5 -6 -7 -8
leaf_value=-0.0054996115811606844 -0.012304195321137074 -0.0021291870605917949 0.008622130533414837 0.0059988838677089646 -0.0011036525121219973 -0.001182394978565812 -0.0080150944893195211
leaf_weight=117 316 441 622 740 1174 1993 102
leaf_count=117 316 441 622 740 1174 1993 102
internal_value=-2.63959e-05 0.00230566 0.00638313 -0.000734915 -0.00348068 0.000761177 -0.00323923
internal_weight=5505 1282 739 4223 1490 2733 543
internal_count=5505 1282 739 4223 1490 2733 543
is_linear=0
shrinkage=0.131037


Tree=56
num_leaves=5
num_cat=0
split_feature=8 10 2 4
split_gain=0.441259 0.474417 0.82148 0.527692
threshold=0.10800000000000001 1.5200000000000002 176.00000000000003 39.350000000000009
decision_type=2 2 2 2
left_child=-1 2 -2 -3
right_child=1 3 -4 -5
leaf_value=-0.009563949317855357 -0.0016173070550367567 0.0023446368881245546 0.0023943758307824309 -0.0030883970930234371
leaf_weight=82 1380 408 2400 1235
leaf_count=82 1380 408 2400 1235
internal_value=-2.31074e-05 0.000120724 0.000929165 -0.00173779
internal_weight=5505 5423 3780 1643
internal_count=5505 5423 3780 1643
is_linear=0
shrinkage=0.131037


Tree=57
num_leaves=7
num_cat=0
split_feature=7 7 6 9 11 2
split_gain=0.378252 1.39825 1.18154 0.640489 0.423258 0.0577858
threshold=0.36000000000000004 0.43500000000000005 869.00000000000011 89.500000000000014 458.50000000000006 290.00000000000006
decision_type=2 2 2 2 2 2
left_child=2 5 4 -3 -1 -2
right_child=1 3 -4 -5 -6 -7
leaf_value=-0.0040943439087031764 0.017362510503750147 -0.0013598924561076327 -0.01837935084065738 0.0017315675853339701 0.0025857545078124236 0.011506842259435808
leaf_weight=353 53 2553 75 2095 302 74
leaf_count=353 53 2553 75 2095 302 74
internal_value=-2.008e-05 0.000404186 -0.00279849 3.30155e-05 -0.00101074 0.0139695
internal_weight=5505 4775 730 4648 655 127
internal_count=5505 4775 730 4648 655 127
is_linear=0
shrinkage=0.131037


Tree=58
num_leaves=7
num_cat=0
split_feature=13 10 10 11 11 5
split_gain=1.22911 1.00036 0.852713 0.617507 0.626052 0.470152
threshold=1.9915000000000003 4.1000000000000005 1.5200000000000002 448.50000000000006 475.00000000000006 381.00000000000006
decision_type=2 2 2 2 2 2
left_child=3 2 -2 5 -5 -1
right_child=1 -3 -4 4 -6 -7
leaf_value=0.0064327458359520135 0.0023379618830883311 0.017486826117440905 -0.0018140157263818676 0.0077003792096453664 -0.0021768373930389421 -0.0056959825632905258
leaf_weight=58 2570 64 1268 148 431 966
leaf_count=58 2570 64 1268 148 431 966
internal_value=-1.73353e-05 0.00123721 0.000965611 -0.0030726 0.000343831 -0.00500667
internal_weight=5505 3902 3838 1603 579 1024
internal_count=5505 3902 3838 1603 579 1024
is_linear=0
shrinkage=0.131037


Tree=59
num_leaves=7
num_cat=0
split_feature=13 13 2 13 2 13
split_gain=1.00897 0.606948 0.594449 0.457896 0.564122 0.128268
threshold=3.2705000000000006 0.62800000000000011 101.00000000000001 10.792500000000002 302.50000000000006 0.45150000000000007
decision_type=2 2 2 2 2 2
left_child=1 5 -3 4 -2 -1
right_child=3 2 -4 -5 -6 -7
leaf_value=-0.013637371932060967 0.0028537086701593585 0.0073027729898131359 -0.0016449433883934772 0.011754366737042537 -0.0014042994270401818 -0.0063306262581634132
leaf_weight=67 1751 134 2594 78 768 113
leaf_count=67 1751 134 2594 78 768 113
internal_value=-1.49494e-05 -0.00169184 -0.00120455 0.00186184 0.00155457 -0.00906369
internal_weight=5505 2908 2728 2597 2519 180
internal_count=5505 2908 2728 2597 2519 180
is_linear=0
shrinkage=0.131037


Tree=60
num_leaves=8
num_cat=0
split_feature=13 2 4 4 2 13 13
split_gain=0.956008 0.77229 0.923619 0.843144 0.550318 0.528081 0.137942
threshold=5.1820000000000013 176.00000000000003 31.500000000000004 40.050000000000004 290.00000000000006 8.8100000000000041 8.0770000000000017
decision_type=2 2 2 2 2 2 2
left_child=1 3 -3 -1 6 -6 -2
right_child=4 2 -4 -5 5 -7 -8
leaf_value=-0.0059543722926244146 0.0055612397607210859 0.0070097737588440054 -0.00058461648640009245 0.001934662207500136 -0.001856398783629518 0.0058862038418906904 0.012944669686953398
leaf_weight=848 526 305 2792 320 461 225 48
leaf_count=848 526 305 2792 320 461 225 48
internal_value=1.68506e-05 -0.000919602 0.000162536 -0.00379096 0.00318855 0.000679636 0.00618285
internal_weight=5525 4265 3097 1168 1260 686 574
internal_count=5525 4265 3097 1168 1260 686 574
is_linear=0
shrinkage=0.131037


Tree=61
num_leaves=8
num_cat=0
split_feature=4 12 4 4 5 6 4
split_gain=0.384202 0.966981 1.02976 0.719474 1.31704 1.12978 0.246001
threshold=37.800000000000004 17.250000000000004 28.500000000000004 43.45000000000001 407.00000000000006 453.00000000000006 33.945000000000007
decision_type=2 2 2 2 2 2 2
left_child=1 2 -1 4 -2 -5 -3
right_child=3 6 -4 5 -6 -7 -8
leaf_value=0.00012443139022490937 -0.015563196062640897 -0.00053390908569181373 0.01052248500373794 0.0050157333397537413 -0.0017041049229505887 -0.00094799137265540656 -0.0075797859244470392
leaf_weight=316 129 519 340 748 1358 2013 102
leaf_count=316 129 519 340 748 1358 2013 102
internal_value=1.47002e-05 0.00200811 0.0055173 -0.000583985 -0.00290803 0.000666822 -0.00169505
internal_weight=5525 1277 656 4248 1487 2761 621
internal_count=5525 1277 656 4248 1487 2761 621
is_linear=0
shrinkage=0.131037


Tree=62
num_leaves=6
num_cat=0
split_feature=13 2 2 13 9
split_gain=0.925002 0.521052 0.612064 0.2829 0.503903
threshold=1.4275000000000004 101.00000000000001 125.00000000000001 0.45150000000000007 155.00000000000003
decision_type=2 2 2 2 2
left_child=3 -2 -3 -1 -5
right_child=1 2 -4 4 -6
leaf_value=-0.012008101635681653 0.010828276161970005 -0.0032338786189225715 0.0011999239372503848 -0.0039177660283236998 0.0089176187871583042
leaf_weight=66 87 620 3874 822 56
leaf_count=66 87 620 3874 822 56
internal_value=1.26045e-05 0.000782707 0.000587699 -0.00372199 -0.00309638
internal_weight=5525 4581 4494 944 878
internal_count=5525 4581 4494 944 878
is_linear=0
shrinkage=0.131037


Tree=63
num_leaves=7
num_cat=0
split_feature=13 8 8 7 8 3
split_gain=0.826498 0.532114 0.710311 0.394271 0.57416 0.35923
threshold=4.7715000000000014 1.3500000000000003 0.93000000000000005 2.8200000000000003 0.88500000000000012 1.4500000000000002
decision_type=2 2 2 2 2 2
left_child=1 2 -1 4 -2 -3
right_child=3 5 -4 -5 -6 -7
leaf_value=-0.0011552472425860546 0.0036037688250919074 0.00032117386815307835 0.0051621171128108006 0.012883077336594603 -0.0027063776717674683 -0.01085570984252302
leaf_weight=3474 1113 73 335 62 318 150
leaf_count=3474 1113 73 335 62 318 150
internal_value=1.08966e-05 -0.000963931 -0.000599012 0.00264511 0.00219985 -0.0071863
internal_weight=5525 4032 3809 1493 1431 223
internal_count=5525 4032 3809 1493 1431 223
is_linear=0
shrinkage=0.131037


Tree=64
num_leaves=8
num_cat=0
split_feature=7 2 7 5 4 0 2
split_gain=0.400085 0.917253 0.691213 0.65698 0.275274 0.146888 0.0753593
threshold=0.32000000000000001 290.00000000000006 0.43500000000000005 398.25000000000006 42.600000000000009 1008.0000000000001 290.00000000000006
decision_type=2 2 2 2 2 2 2
left_child=1 4 6 -4 -1 -3 -2
right_child=2 5 3 -5 -6 -7 -8
leaf_value=-0.0033163478788073584 0.012920244707017916 -0.014631438567537573 0.0051044953561642931 -0.00033540806621438655 0.0028458755924887836 -0.007435735793376635 0.0068175626262560437
leaf_weight=218 56 76 419 4223 290 143 100
leaf_count=218 56 76 419 4223 290 143 100
internal_value=9.46915e-06 -0.00285472 0.000443951 0.000155104 0.000196782 -0.00994384 0.00902364
internal_weight=5525 727 4798 4642 508 219 156
internal_count=5525 727 4798 4642 508 219 156
is_linear=0
shrinkage=0.131037


Tree=65
num_leaves=8
num_cat=0
split_feature=13 4 0 0 8 7 5
split_gain=0.781294 0.528664 1.47305 0.745048 0.282788 0.312429 0.11767
threshold=0.94750000000000012 37.800000000000004 904.00000000000011 650.00000000000011 0.23250000000000001 0.7350000000000001 430.00000000000006
decision_type=2 2 2 2 2 2 2
left_child=4 2 -2 -3 5 -1 -6
right_child=1 3 -4 -5 6 -7 -8
leaf_value=-0.005176808549935269 -0.00014723290466679055 0.0048575077554021259 0.010054337734674347 -0.00088058973212104693 -0.0024329644885305833 0.0078465972625222109 -0.0089525687798260988
leaf_weight=86 799 437 349 3501 61 50 234
leaf_count=86 799 437 349 3501 61 50 234
internal_value=2.31676e-05 0.00047754 0.00295206 -0.000243228 -0.00533311 -0.000371289 -0.00761252
internal_weight=5517 5086 1148 3938 431 136 295
internal_count=5517 5086 1148 3938 431 136 295
is_linear=0
shrinkage=0.131037


Tree=66
num_leaves=8
num_cat=0
split_feature=13 1 8 4 3 7 10
split_gain=0.743946 0.4983 0.843112 0.703045 0.414749 0.393323 0.276503
threshold=2.561500000000001 470.00000000000006 0.93000000000000005 65.250000000000014 3.1500000000000004 0.36000000000000004 0.71500000000000019
decision_type=2 2 2 2 2 2 2
left_child=4 3 -3 -2 5 -1 -6
right_child=1 2 -4 -5 6 -7 -8
leaf_value=-0.0054317914263507707 -7.6304429393616997e-05 0.003145937408469936 0.020698003626362701 0.0089700346418030152 -0.0086925294861147379 -0.00026042498290480359 -0.00065188917261733883
leaf_weight=299 2433 609 51 157 225 1633 110
leaf_count=299 2433 609 51 157 225 1633 110
internal_value=1.99629e-05 0.00129125 0.0045059 0.000471156 -0.00180153 -0.00106199 -0.00605943
internal_weight=5517 3250 660 2590 2267 1932 335
internal_count=5517 3250 660 2590 2267 1932 335
is_linear=0
shrinkage=0.131037


Tree=67
num_leaves=8
num_cat=0
split_feature=13 2 10 4 4 1 12
split_gain=0.643063 0.531172 0.660438 0.534743 0.481508 0.698401 0.321969
threshold=5.283500000000001 176.00000000000003 0.91500000000000015 40.70000000000001 49.835000000000008 428.00000000000006 13.295000000000002
decision_type=2 2 2 2 2 2 2
left_child=1 3 -3 -1 6 -6 -2
right_child=4 2 -4 -5 5 -7 -8
leaf_value=-0.0045632053890852769 0.007697968411776941 0.0021130420144060543 -0.0016968841236810646 0.0021055398824393807 -0.0043830178438483153 0.010099001387552417 0.0024124474393697362
leaf_weight=928 317 1532 1594 265 277 72 532
leaf_count=928 317 1532 1594 265 277 72 532
internal_value=1.71789e-05 -0.000727476 0.000169538 -0.00307989 0.00270377 -0.00138848 0.00438877
internal_weight=5517 4319 3126 1193 1198 349 849
internal_count=5517 4319 3126 1193 1198 349 849
is_linear=0
shrinkage=0.131037


Tree=68
num_leaves=7
num_cat=0
split_feature=13 10 12 13 13 2
split_gain=0.593732 0.467662 0.892311 0.555062 0.143856 0.136581
threshold=8.1990000000000034 1.7450000000000003 12.650000000000002 1.6475000000000002 11.150000000000004 302.50000000000006
decision_type=2 2 2 2 2 2
left_child=1 3 -3 -1 5 -2
right_child=4 2 -4 -5 -6 -7
leaf_value=-0.0022325682827944527 0.010183730074587326 0.0052027814777644088 -0.0039690208503458538 0.0013358765242107811 0.011360422003777513 0.0026475857993489712
leaf_weight=1013 52 218 1102 2864 59 209
leaf_count=1013 52 218 1102 2864 59 209
internal_value=1.4985e-05 -0.000321901 -0.00245248 0.000402884 0.00549361 0.00415821
internal_weight=5517 5197 1320 3877 320 261
internal_count=5517 5197 1320 3877 320 261
is_linear=0
shrinkage=0.131037


Tree=69
num_leaves=8
num_cat=0
split_feature=13 2 13 4 4 13 10
split_gain=0.483171 0.591018 0.473109 0.3289 0.266802 0.147421 0.132369
threshold=6.7830000000000013 403.00000000000006 0.71450000000000014 50.70000000000001 49.835000000000008 9.9195000000000011 2.5350000000000006
decision_type=2 2 2 2 2 2 2
left_child=1 2 -1 -3 6 -6 -2
right_child=4 3 -4 -5 5 -7 -8
leaf_value=-0.0056485805481859188 0.0076518266726155852 -0.0017539085282905311 0.00027103577456343079 -0.01015294041256609 -0.002523066630910586 0.0043894841516919116 0.002889817504469414
leaf_weight=245 216 165 4309 157 153 81 191
leaf_count=245 216 165 4309 157 153 81 191
internal_value=1.31355e-05 -0.000431056 -4.69144e-05 -0.0058565 0.00339573 -0.000120099 0.00542294
internal_weight=5517 4876 4554 322 641 234 407
internal_count=5517 4876 4554 322 641 234 407
is_linear=0
shrinkage=0.131037


Tree=70
num_leaves=7
num_cat=0
split_feature=13 10 8 11 4 11
split_gain=0.480632 0.733488 0.573659 0.551752 0.598288 0.529364
threshold=2.2770000000000006 4.1000000000000005 0.24250000000000002 448.50000000000006 25.400000000000002 476.50000000000006
decision_type=2 2 2 2 2 2
left_child=3 2 -2 4 -1 -5
right_child=1 -3 -4 5 -6 -7
leaf_value=0.0049397743547600435 -0.0017220378924977773 0.016330722115316172 0.0018330905861487611 0.0070012761158490247 -0.0043564472273766135 -0.00098085277565138963
leaf_weight=133 1167 52 2344 197 1103 516
leaf_count=133 1167 52 2344 197 1103 516
internal_value=-2.42917e-05 0.000880264 0.000650747 -0.00167914 -0.0033542 0.00122128
internal_weight=5512 3563 3511 1949 1236 713
internal_count=5512 3563 3511 1949 1236 713
is_linear=0
shrinkage=0.131037


Tree=71
num_leaves=7
num_cat=0
split_feature=13 10 9 3 1 13
split_gain=0.437023 0.45912 0.750743 0.542544 0.172712 0.180114
threshold=7.7655000000000012 1.7450000000000003 57.500000000000007 3.1500000000000004 453.50000000000006 9.6670000000000034
decision_type=2 2 2 2 2 2
left_child=1 3 -3 -1 5 -2
right_child=4 2 -4 -5 -6 -7
leaf_value=0.0011209631913082936 0.00022035484147662872 -0.017622864782704462 -0.0018290420424176305 -0.0028685421923435052 0.01050979709857458 0.0062856061459052089
leaf_weight=3107 187 54 1227 721 62 154
leaf_count=3107 187 54 1227 721 62 154
internal_value=-2.09945e-05 -0.000349125 -0.00249671 0.000368923 0.00413294 0.00296648
internal_weight=5512 5109 1281 3828 403 341
internal_count=5512 5109 1281 3828 403 341
is_linear=0
shrinkage=0.131037


Tree=72
num_leaves=7
num_cat=0
split_feature=13 0 0 0 4 4
split_gain=0.386579 0.465 0.466985 0.255354 0.685502 0.42993
threshold=3.6685000000000003 2117.5000000000005 1725.0000000000002 862.00000000000011 42.600000000000009 38.70000000000001
decision_type=2 2 2 2 2 2
left_child=1 2 -1 4 -2 -5
right_child=3 -3 -4 5 -6 -7
leaf_value=-0.0010837662774436096 0.00045115255414118316 -0.012775259347617578 0.0063341314397352237 0.0067680405621177364 0.0083154060570015884 -0.00058824067650538033
leaf_weight=3036 571 56 153 153 286 1257
leaf_count=3036 571 56 153 153 286 1257
internal_value=-1.81308e-05 -0.000935785 -0.000727126 0.00129436 0.00307841 0.000208321
internal_weight=5512 3245 3189 2267 857 1410
internal_count=5512 3245 3189 2267 857 1410
is_linear=0
shrinkage=0.131037


Tree=73
num_leaves=8
num_cat=0
split_feature=13 8 8 4 4 10 13
split_gain=0.390925 0.413126 0.638119 0.486439 0.318844 0.168001 0.135142
threshold=6.2300000000000013 1.3500000000000003 0.93000000000000005 40.050000000000004 49.835000000000008 1.9900000000000002 8.8100000000000041
decision_type=2 2 2 2 2 2 2
left_child=1 2 -1 -3 5 -2 -6
right_child=4 3 -4 -5 6 -7 -8
leaf_value=-0.00063861595016759872 0.0064138816127394908 -0.010780298768665769 0.0051399111698459113 0.00020768777296174503 -0.0037894190603061087 0.001810468457081484 0.0021259607919042545
leaf_weight=4055 313 141 357 135 146 244 121
leaf_count=4055 313 141 357 135 146 244 121
internal_value=-1.56417e-05 -0.000478725 -0.000170502 -0.00539718 0.0026161 0.00440158 -0.00109978
internal_weight=5512 4688 4412 276 824 557 267
internal_count=5512 4688 4412 276 824 557 267
is_linear=0
shrinkage=0.131037


Tree=74
num_leaves=8
num_cat=0
split_feature=13 4 11 4 8 9 5
split_gain=0.340108 0.386462 1.5272 0.594096 0.301242 0.138585 0.127646
threshold=0.99550000000000016 37.800000000000004 483.50000000000006 44.010000000000012 0.23250000000000001 155.00000000000003 430.00000000000006
decision_type=2 2 2 2 2 2 2
left_child=4 2 -2 -3 5 -1 -6
right_child=1 3 -4 -5 6 -7 -8
leaf_value=-0.0013499008316471349 0.0069080409183865073 -0.0022798020809082385 -0.0028052416842779884 0.0010148893981534726 -0.00028674117878280185 0.0070512833589440639 -0.0067510849122084616
leaf_weight=95 606 1571 513 2338 66 52 271
leaf_count=95 606 1571 513 2338 66 52 271
internal_value=-1.34228e-05 0.000305501 0.00245292 -0.000308618 -0.00333143 0.00160587 -0.00549212
internal_weight=5512 5028 1119 3909 484 147 337
internal_count=5512 5028 1119 3909 484 147 337
is_linear=0
shrinkage=0.131037


Tree=75
num_leaves=5
num_cat=0
split_feature=13 8 8 0
split_gain=0.284257 0.294401 0.518655 0.176088
threshold=0.45150000000000007 1.3500000000000003 0.93000000000000005 1237.5000000000002
decision_type=2 2 2 2
left_child=-1 2 -2 -3
right_child=1 3 -4 -5
leaf_value=-0.0088522386657707182 -7.5464545592597968e-07 -0.0023094598906374373 0.0049058067523226438 -0.010494372217981111
leaf_weight=61 4761 260 401 55
leaf_count=61 4761 260 401 55
internal_value=4.26989e-05 0.000142203 0.000379944 -0.00374617
internal_weight=5538 5477 5162 315
internal_count=5538 5477 5162 315
is_linear=0
shrinkage=0.131037


Tree=76
num_leaves=8
num_cat=0
split_feature=13 9 9 3 2 13 0
split_gain=0.286236 0.400571 0.902469 0.708024 0.305692 0.275256 0.112161
threshold=5.283500000000001 89.500000000000014 72.500000000000014 3.6350000000000002 290.00000000000006 9.6670000000000034 862.00000000000011
decision_type=2 2 2 2 2 2 2
left_child=1 2 -1 -3 6 -6 -2
right_child=4 3 -4 -5 5 -7 -8
leaf_value=0.00053486364623542184 0.0058807367014630952 0.0014127059215241968 -0.005015790480757747 -0.0073819793835594345 -0.0015519742530667724 0.0047819169022544862 0.0021523857267465906
leaf_weight=1204 286 2076 863 170 512 153 274
leaf_count=1204 286 2076 863 170 512 153 274
internal_value=3.68782e-05 -0.000464749 -0.00178146 0.000745972 0.00180495 -9.11226e-05 0.00406076
internal_weight=5538 4313 2067 2246 1225 665 560
internal_count=5538 4313 2067 2246 1225 665 560
is_linear=0
shrinkage=0.131037


Tree=77
num_leaves=8
num_cat=0
split_feature=13 9 7 10 8 10 9
split_gain=0.27152 0.440556 0.675671 0.486253 0.320536 0.366424 0.201402
threshold=1.5255000000000003 89.500000000000014 0.32000000000000001 1.9900000000000002 0.23250000000000001 0.84000000000000008 103.00000000000001
decision_type=2 2 2 2 2 2 2
left_child=4 3 -3 -2 5 -1 -6
right_child=1 2 -4 -5 6 -7 -8
leaf_value=0.0081613123903419363 0.0004540290522154834 -0.003624811056047038 0.0030514681807730028 -0.0036042150098099732 -0.0020943457647229595 -0.0017031431036690968 -0.0071871066911178214
leaf_weight=103 1864 310 1615 696 605 173 172
leaf_count=103 1864 310 1615 696 605 173 172
internal_value=3.2102e-05 0.000477107 0.00197509 -0.000648381 -0.00186103 0.0019696 -0.00322477
internal_weight=5538 4485 1925 2560 1053 276 777
internal_count=5538 4485 1925 2560 1053 276 777
is_linear=0
shrinkage=0.131037


Tree=78
num_leaves=8
num_cat=0
split_feature=13 10 12 3 1 1 4
split_gain=0.275161 0.307326 0.678386 0.386037 0.178761 0.189145 0.0255194
threshold=6.8655000000000017 1.7450000000000003 12.650000000000002 3.1500000000000004 453.50000000000006 380.50000000000006 43.750000000000007
decision_type=2 2 2 2 2 2 2
left_child=1 3 -3 -1 5 -2 -6
right_child=4 2 -4 -5 6 -7 -8
leaf_value=0.0009084978339001285 0.0072318000899583689 0.0045539012368367151 -0.0036303603677786313 -0.0025417883081059784 0.004678710335565015 0.00025783810792600427 0.008319455821329336
leaf_weight=3050 80 212 963 681 65 409 78
leaf_count=3050 80 212 963 681 65 409 78
internal_value=2.77266e-05 -0.000303359 -0.00215168 0.000278098 0.00260157 0.00140365 0.00668127
internal_weight=5538 4906 1175 3731 632 489 143
internal_count=5538 4906 1175 3731 632 489 143
is_linear=0
shrinkage=0.131037


Tree=79
num_leaves=8
num_cat=0
split_feature=2 6 7 7 13 2 5
split_gain=0.243491 0.609714 1.28515 0.729546 0.503383 0.458044 0.0785641
threshold=176.00000000000003 445.50000000000006 0.64000000000000012 0.38000000000000006 5.2475000000000014 101.00000000000001 458.00000000000006
decision_type=2 2 2 2 2 2 2
left_child=4 2 -2 -3 5 -1 -6
right_child=1 3 -4 -5 6 -7 -8
leaf_value=0.0042730730285230195 -0.0001141165267720999 -0.0074074856431887671 0.0087512963576712784 0.00013009690356637258 0.0014133569312609496 -0.0035821980211192387 0.0057398160267504317
leaf_weight=145 804 241 431 2584 156 1040 137
leaf_count=145 804 241 431 2584 156 1040 137
internal_value=2.42629e-05 0.00054893 0.00297789 -0.000512098 -0.00141537 -0.002619 0.00344444
internal_weight=5538 4060 1235 2825 1478 1185 293
internal_count=5538 4060 1235 2825 1478 1185 293
is_linear=0
shrinkage=0.131037


Tree=80
num_leaves=7
num_cat=0
split_feature=13 9 0 3 7 0
split_gain=0.288494 0.351775 0.690975 0.386765 0.313948 0.330288
threshold=3.0725000000000002 95.000000000000014 1512.0000000000002 3.1500000000000004 0.22000000000000003 555.00000000000011
decision_type=2 2 2 2 2 2
left_child=4 2 -2 -3 -1 -6
right_child=1 3 -4 -5 5 -7
leaf_value=-0.010194918750116726 -0.00048716478415109708 0.0053599020325820635 0.012687862093845184 -0.00036276999634875766 0.0042771060975623594 -0.0011103867709119494
leaf_weight=61 1831 536 71 325 212 2476
leaf_count=61 1831 536 71 325 212 2476
internal_value=5.34584e-05 0.000999461 3.41461e-06 0.00319702 -0.000896499 -0.000684594
internal_weight=5512 2763 1902 861 2749 2688
internal_count=5512 2763 1902 861 2749 2688
is_linear=0
shrinkage=0.131037


Tree=81
num_leaves=6
num_cat=0
split_feature=1 0 5 5 10
split_gain=0.218011 0.265926 0.198886 1.08543 0.64854
threshold=654.50000000000011 1035.0000000000002 447.50000000000006 456.00000000000006 0.66000000000000014
decision_type=2 2 2 2 2
left_child=2 -2 4 -4 -1
right_child=1 -3 3 -5 -6
leaf_value=-0.0043566504073089228 -0.000194219501192981 0.011557725660649588 0.010582910539695402 -2.9720097028412347e-05 0.0007240484049310875
leaf_weight=692 70 62 174 3370 1144
leaf_count=692 70 62 174 3370 1144
internal_value=4.6341e-05 0.00530776 -8.23107e-05 0.000490666 -0.00118961
internal_weight=5512 132 5380 3544 1836
internal_count=5512 132 5380 3544 1836
is_linear=0
shrinkage=0.131037


Tree=82
num_leaves=8
num_cat=0
split_feature=13 11 4 11 4 5 5
split_gain=0.272283 0.402044 1.43494 0.400445 0.385974 0.323305 0.239248
threshold=2.0255000000000005 480.50000000000006 37.800000000000004 448.50000000000006 42.600000000000009 407.00000000000006 489.00000000000006
decision_type=2 2 2 2 2 2 2
left_child=3 2 -2 5 -3 -1 -5
right_child=1 4 -4 6 -6 -7 -8
leaf_value=0.0030161069232844733 0.0091687113224440259 -0.0033720333015030534 0.00028034492293842065 0.0024128647986563037 0.00071300286976856545 -0.00377512446227959 -0.0050860632188781162
leaf_weight=138 377 653 1809 514 1012 924 85
leaf_count=138 377 653 1809 514 1012 924 85
internal_value=4.02132e-05 0.000645483 0.00181434 -0.00136167 -0.000887693 -0.00289041 0.00134477
internal_weight=5512 3851 2186 1661 1665 1062 599
internal_count=5512 3851 2186 1661 1665 1062 599
is_linear=0
shrinkage=0.131037


Tree=83
num_leaves=8
num_cat=0
split_feature=13 10 12 2 8 8 13
split_gain=0.249318 0.294343 0.551641 0.339542 0.132394 0.142205 0.129381
threshold=7.9770000000000012 1.9900000000000002 12.650000000000002 176.00000000000003 0.88500000000000012 0.20500000000000004 10.470500000000003
decision_type=2 2 2 2 2 2 2
left_child=1 3 -3 -1 5 -2 -6
right_child=4 2 -4 -5 6 -7 -8
leaf_value=-0.0012706174678185445 0.0031865144857665651 0.0038263524553249898 -0.0034975079421307037 0.0012330432296168178 -0.0025818616146348113 0.010601758386235286 0.0053272385832529761
leaf_weight=1458 145 219 907 2567 94 65 57
leaf_count=1458 145 219 907 2567 94 65 57
internal_value=3.50004e-05 -0.000197871 -0.00207095 0.000325537 0.00336432 0.0054931 0.000388012
internal_weight=5512 5151 1126 4025 361 210 151
internal_count=5512 5151 1126 4025 361 210 151
is_linear=0
shrinkage=0.131037


Tree=84
num_leaves=6
num_cat=0
split_feature=13 1 0 2 7
split_gain=0.243786 0.288444 0.380178 0.268005 0.0953805
threshold=0.59650000000000014 654.50000000000011 1035.0000000000002 176.00000000000003 0.57000000000000017
decision_type=2 2 2 2 2
left_child=4 3 -3 -2 -1
right_child=1 2 -4 -5 -6
leaf_value=-0.0092799155205191899 -0.0015725357508123317 -1.9220764505291876e-05 0.015109423138784118 0.00058097746313008776 -0.0024943059514069953
leaf_weight=59 1329 64 51 3916 93
leaf_count=59 1329 64 51 3916 93
internal_value=3.04714e-05 0.000177652 0.00666954 3.48583e-05 -0.00514391
internal_weight=5512 5360 115 5245 152
internal_count=5512 5360 115 5245 152
is_linear=0
shrinkage=0.131037


Tree=85
num_leaves=7
num_cat=0
split_feature=13 0 0 7 7 0
split_gain=0.234035 0.339487 0.308022 0.274996 0.572921 0.205797
threshold=3.6685000000000003 2117.5000000000005 882.00000000000011 2.8200000000000003 1.9850000000000001 1209.0000000000002
decision_type=2 2 2 2 2 2
left_child=1 2 -1 4 -2 -5
right_child=3 -3 -4 5 -6 -7
leaf_value=-0.0020418920878909506 0.001039241345392248 -0.010933275400763342 0.00054704774618951442 0.01164678611691451 -0.0088414214675542648 0.0015537468591518618
leaf_weight=1455 2029 56 1722 69 106 71
leaf_count=1455 2029 56 1722 69 106 71
internal_value=-0.000100054 -0.000816959 -0.000637887 0.000917696 0.000547558 0.00654524
internal_weight=5508 3233 3177 2275 2135 140
internal_count=5508 3233 3177 2275 2135 140
is_linear=0
shrinkage=0.131037


Tree=86
num_leaves=5
num_cat=0
split_feature=7 7 7 4
split_gain=0.222319 0.234703 0.642489 0.591361
threshold=0.16500000000000004 0.36000000000000004 0.43500000000000005 42.600000000000009
decision_type=2 2 2 2
left_child=-1 3 -3 -2
right_child=1 2 -4 -5
leaf_value=0.0086991521374235829 -0.0064376800014266508 0.0094706396472841719 -8.6469364613855833e-05 0.0012074038379597815
leaf_weight=49 330 124 4639 366
leaf_count=49 330 124 4639 366
internal_value=-8.68303e-05 -0.000166132 0.000161847 -0.00241402
internal_weight=5508 5459 4763 696
internal_count=5508 5459 4763 696
is_linear=0
shrinkage=0.131037


Tree=87
num_leaves=5
num_cat=0
split_feature=13 13 10 13
split_gain=0.217149 0.199567 0.266883 0.0704751
threshold=0.45150000000000007 7.9770000000000012 1.9900000000000002 11.150000000000004
decision_type=2 2 2 2
left_child=-1 2 -2 -3
right_child=1 3 -4 -5
leaf_value=-0.0076043191508495048 0.00030708943939886183 0.002197865153767502 -0.0019849838730885364 0.007286061528638991
leaf_weight=65 3965 304 1118 56
leaf_count=65 3965 304 1118 56
internal_value=-7.53387e-05 1.41392e-05 -0.000196583 0.002996
internal_weight=5508 5443 5083 360
internal_count=5508 5443 5083 360
is_linear=0
shrinkage=0.131037


Tree=88
num_leaves=7
num_cat=0
split_feature=13 0 4 6 0 1
split_gain=0.178337 0.319497 0.302836 0.308814 0.267358 0.127404
threshold=3.3705000000000007 2117.5000000000005 65.250000000000014 343.00000000000006 1725.0000000000002 490.00000000000006
decision_type=2 2 2 2 2 2
left_child=1 4 3 -2 -1 -4
right_child=2 -3 5 -5 -6 -7
leaf_value=-0.00086318037724669706 0.0099018868156587163 -0.011243737565867121 0.0092168369898789314 0.00013605036777226953 0.0047779207237527172 0.0015370909046641327
leaf_weight=2801 57 49 98 2290 152 61
leaf_count=2801 57 49 98 2290 152 61
internal_value=-6.53535e-05 -0.000746996 0.000750256 0.000374247 -0.000572008 0.00628551
internal_weight=5508 3002 2506 2347 2953 159
internal_count=5508 3002 2506 2347 2953 159
is_linear=0
shrinkage=0.131037


Tree=89
num_leaves=4
num_cat=0
split_feature=7 13 10
split_gain=0.203155 0.166201 0.154434
threshold=3.9500000000000002 0.45150000000000007 1.9900000000000002
decision_type=2 2 2
left_child=1 -1 -3
right_child=-2 2 -4
leaf_value=-0.0065516583293866604 -0.0070206669873446315 0.00051749462903925738 -0.001110174499835147
leaf_weight=65 71 4042 1330
leaf_count=65 71 4042 1330
internal_value=-5.65632e-05 3.39452e-05 0.000114074
internal_weight=5508 5437 5372
internal_count=5508 5437 5372
is_linear=0
shrinkage=0.131037


Tree=90
num_leaves=5
num_cat=0
split_feature=7 8 4 2
split_gain=0.174214 0.167718 0.51915 0.493538
threshold=3.9500000000000002 1.3500000000000003 40.70000000000001 101.00000000000001
decision_type=2 2 2 2
left_child=1 3 -3 -1
right_child=-2 2 -4 -5
leaf_value=0.012724763871861295 -0.0064503679527055935 -0.006564202069689491 0.0047670216850832434 0.00013027779478986807
leaf_weight=54 71 212 103 5074
leaf_count=54 71 212 103 5074
internal_value=-1.02641e-06 8.26673e-05 -0.00285153 0.000263372
internal_weight=5514 5443 315 5128
internal_count=5514 5443 315 5128
is_linear=0
shrinkage=0.131037


Tree=91
num_leaves=8
num_cat=0
split_feature=13 2 5 2 9 12 7
split_gain=0.189356 0.334452 0.265251 0.219845 0.380953 0.375062 0.153584
threshold=4.7715000000000014 302.50000000000006 454.79000000000002 176.00000000000003 72.500000000000014 17.750000000000004 2.8200000000000003
decision_type=2 2 2 2 2 2 2
left_child=3 6 -3 4 -1 -5 -2
right_child=1 2 -4 5 -6 -7 -8
leaf_value=0.00019261646592081051 0.0025743705367680665 -0.00619078525038464 0.00038998808600323288 0.001331277993196024 -0.0047025367675137117 -0.0016909885540167557 0.0095959823507275697
leaf_weight=595 740 130 548 1767 503 1173 58
leaf_count=595 740 130 548 1767 503 1173 58
internal_value=-7.78855e-07 0.0012689 -0.000868329 -0.00046547 -0.00204772 0.000124648 0.00308771
internal_weight=5514 1476 678 4038 1098 2940 798
internal_count=5514 1476 678 4038 1098 2940 798
is_linear=0
shrinkage=0.131037


Tree=92
num_leaves=7
num_cat=0
split_feature=13 9 9 9 8 9
split_gain=0.174821 0.223887 0.360717 0.302348 0.21351 0.183103
threshold=0.94750000000000012 89.500000000000014 100.50000000000001 72.500000000000014 0.17000000000000001 95.000000000000014
decision_type=2 2 2 2 2 2
left_child=4 3 -3 -2 -1 -6
right_child=1 2 -4 -5 5 -7
leaf_value=0.0046307186650054273 0.00077155398788130976 0.0029979969942000285 -0.00031653133436045626 -0.0019469627010006015 -0.00036718186197448463 -0.0062676877642732394
leaf_weight=61 1424 1028 1246 1385 160 210
leaf_count=61 1424 1028 1246 1385 160 210
internal_value=-5.07516e-07 0.000213913 0.00118081 -0.000567988 -0.00253478 -0.00372255
internal_weight=5514 5083 2274 2809 431 370
internal_count=5514 5083 2274 2809 431 370
is_linear=0
shrinkage=0.131037


Tree=93
num_leaves=7
num_cat=0
split_feature=13 7 1 10 9 9
split_gain=0.175015 0.177841 0.445744 0.303002 0.0737729 0.0407984
threshold=8.6465000000000014 1.4150000000000003 490.00000000000006 4.1000000000000005 89.500000000000014 75.500000000000014
decision_type=2 2 2 2 2 2
left_child=1 3 -3 -1 5 -2
right_child=4 2 -4 -5 -6 -7
leaf_value=0.00016692990737033359 0.0051005594141913533 -0.0025161375836949698 0.0023675286096395002 0.0079975570748715991 0.0065986981715535405 0.00062116956037598799
leaf_weight=3473 48 1261 430 87 81 134
leaf_count=3473 48 1261 430 87 81 134
internal_value=-4.41041e-07 -0.00016609 -0.00127288 0.000358968 0.00329782 0.00181564
internal_weight=5514 5251 1691 3560 263 182
internal_count=5514 5251 1691 3560 263 182
is_linear=0
shrinkage=0.131037


Tree=94
num_leaves=8
num_cat=0
split_feature=13 11 8 4 7 7 11
split_gain=0.155343 0.348386 0.325293 0.678366 0.424235 0.315919 0.275827
threshold=2.4790000000000005 448.50000000000006 0.23250000000000001 33.195000000000007 0.48000000000000004 0.36000000000000004 476.50000000000006
decision_type=2 2 2 2 2 2 2
left_child=1 5 4 -4 -2 -1 -3
right_child=2 6 3 -5 -6 -7 -8
leaf_value=-0.0084754699497987217 -0.0078937658618888473 0.0054519239948877087 0.0081860621098055145 0.0007030207102200071 -0.00027058642410893554 -0.0015074875333221573 -0.00012024242653172958
leaf_weight=123 143 205 233 1951 1022 1244 593
leaf_count=123 143 205 233 1951 1022 1244 593
internal_value=-4.37142e-08 -0.000865514 0.000558741 0.00150244 -0.00120836 -0.0021362 0.00130824
internal_weight=5514 2165 3349 2184 1165 1367 798
internal_count=5514 2165 3349 2184 1165 1367 798
is_linear=0
shrinkage=0.131037


Tree=95
num_leaves=8
num_cat=0
split_feature=13 0 9 7 2 13 0
split_gain=0.168605 0.302701 0.272829 0.239298 0.207771 0.137713 0.0376261
threshold=6.2300000000000013 437.00000000000006 50.500000000000007 1.3050000000000004 290.00000000000006 9.0385000000000009 862.00000000000011
decision_type=2 2 2 2 2 2 2
left_child=1 3 -3 -1 6 -6 -2
right_child=4 2 -4 -5 5 -7 -8
leaf_value=-0.0016861457796951424 0.0062761980206040013 0.0025209163315074654 -0.00044670236246543136 -0.0099500496688809462 -0.00154261820372829 0.0027957204518154282 0.0032361977081882018
leaf_weight=173 124 618 3819 93 317 208 173
leaf_count=173 124 618 3819 93 317 208 173
internal_value=1.14303e-05 -0.000290768 -3.28266e-05 -0.00458439 0.00174332 0.000171674 0.00451345
internal_weight=5525 4703 4437 266 822 525 297
internal_count=5525 4703 4437 266 822 525 297
is_linear=0
shrinkage=0.131037


Tree=96
num_leaves=6
num_cat=0
split_feature=1 6 2 4 6
split_gain=0.148958 0.268958 0.189277 0.547635 0.340175
threshold=654.50000000000011 347.50000000000006 176.00000000000003 40.70000000000001 445.50000000000006
decision_type=2 2 2 2 2
left_child=2 -2 3 -1 -4
right_child=1 -3 4 -5 -6
leaf_value=-0.0028782324364157656 -5.802823521616086e-05 0.012184009987555831 0.0021631994434393705 0.0034513577183485481 -0.00044485135202551915
leaf_weight=1038 85 48 1235 303 2816
leaf_count=1038 85 48 1235 303 2816
internal_value=9.87626e-06 0.00434244 -9.65532e-05 -0.00144628 0.000349662
internal_weight=5525 133 5392 1341 4051
internal_count=5525 133 5392 1341 4051
is_linear=0
shrinkage=0.131037


Tree=97
num_leaves=7
num_cat=0
split_feature=13 2 9 8 7 4
split_gain=0.170256 0.330941 0.342584 0.304879 0.23215 0.216583
threshold=1.6475000000000002 101.00000000000001 89.500000000000014 0.21500000000000002 0.88500000000000012 25.700000000000006
decision_type=2 2 2 2 2 2
left_child=3 -2 -3 4 -1 -5
right_child=1 2 -4 5 -6 -7
leaf_value=0.00026516142434941116 0.0092010222376355134 -0.00078752576923379035 0.0015827976163460618 0.0053894472064406193 0.0096994708424748936 -0.0028541974706461446
leaf_weight=151 72 2411 1850 58 64 919
leaf_count=151 72 2411 1850 58 64 919
internal_value=8.5266e-06 0.000390479 0.000241042 -0.0013779 0.00308463 -0.00236237
internal_weight=5525 4333 4261 1192 215 977
internal_count=5525 4333 4261 1192 215 977
is_linear=0
shrinkage=0.131037


Tree=98
num_leaves=8
num_cat=0
split_feature=13 8 9 5 8 2 4
split_gain=0.140127 0.232627 0.225254 0.22252 0.188283 0.347631 0.178929
threshold=5.5795000000000003 0.88500000000000012 75.500000000000014 481.00000000000006 1.3500000000000003 101.00000000000001 40.050000000000004
decision_type=2 2 2 2 2 2 2
left_child=4 3 -3 -2 5 -1 -6
right_child=1 2 -4 -5 6 -7 -8
leaf_value=0.010145310733021278 0.0016094191448531286 0.0046366449916037259 -0.0036961952985466928 0.0077824949529673223 -0.0073742472639993315 -0.00024782169815086667 -0.00031382243060587719
leaf_weight=56 650 73 233 119 123 4146 125
leaf_count=56 650 73 233 119 123 4146 125
internal_value=7.52312e-06 0.0013506 -0.00170052 0.00256779 -0.000316395 -0.000108742 -0.00382517
internal_weight=5525 1075 306 769 4450 4202 248
internal_count=5525 1075 306 769 4450 4202 248
is_linear=0
shrinkage=0.131037


Tree=99
num_leaves=8
num_cat=0
split_feature=7 7 13 2 13 13 5
split_gain=0.131581 0.445047 0.949296 0.394617 0.579388 0.280927 0.252966
threshold=0.36000000000000004 0.43500000000000005 1.4935000000000003 290.00000000000006 3.2930000000000006 8.0770000000000017 398.25000000000006
decision_type=2 2 2 2 2 2 2
left_child=3 2 -2 4 -1 -5 -3
right_child=1 6 -4 5 -6 -7 -8
leaf_value=-0.0029545628239473292 -0.0033461398493302846 0.003082706133731657 0.019023193083837878 -0.0083344670418739435 0.00626228653663965 0.0027724025942654977 -0.00026025807375411032
leaf_weight=316 65 428 65 188 186 49 4228
leaf_count=316 65 428 65 188 186 49 4228
internal_value=6.4817e-06 0.000258192 0.00782041 -0.00162046 0.000455731 -0.00602809 4.65336e-05
internal_weight=5525 4786 130 739 502 237 4656
internal_count=5525 4786 130 739 502 237 4656
is_linear=0
shrinkage=0.131037


Tree=100
num_leaves=8
num_cat=0
split_feature=5 5 13 1 2 13 13
split_gain=0.141305 0.706211 0.374017 0.36451 0.319746 0.299616 0.24548
threshold=447.50000000000006 456.00000000000006 3.1195000000000004 595.00000000000011 140.00000000000003 1.6670000000000003 4.0630000000000015
decision_type=2 2 2 2 2 2 2
left_child=3 2 -2 6 -5 -3 -1
right_child=1 5 -4 4 -6 -7 -8
leaf_value=-0.0026115589172149498 0.0043152781730158183 -0.0022513061966897138 0.017115598399587002 -0.0014641402635374473 0.010502135033646085 0.00075028225084494628 0.0005118288304551829
leaf_weight=1097 119 728 59 68 87 2647 711
leaf_count=1097 119 728 59 68 87 2647 711
internal_value=3.37155e-05 0.000527105 0.00857158 -0.000858102 0.00523716 0.000102124 -0.00138197
internal_weight=5516 3553 178 1963 155 3375 1808
internal_count=5516 3553 178 1963 155 3375 1808
is_linear=0
shrinkage=0.131037


Tree=101
num_leaves=5
num_cat=0
split_feature=7 7 9 0
split_gain=0.16447 0.192431 0.145471 0.0058525
threshold=0.16500000000000004 0.22000000000000003 89.500000000000014 1008.0000000000001
decision_type=2 2 2 2
left_child=-1 3 -3 -2
right_child=1 2 -4 -5
leaf_value=0.0075873426074873542 -0.0061465421881894628 -0.00054759854742902707 0.00082511778374050999 -0.0041682211226598161
leaf_weight=49 53 2879 2456 79
leaf_count=49 53 2879 2456 79
internal_value=2.93554e-05 -3.7955e-05 8.38951e-05 -0.00498062
internal_weight=5516 5467 5335 132
internal_count=5516 5467 5335 132
is_linear=0
shrinkage=0.131037


Tree=102
num_leaves=7
num_cat=0
split_feature=12 4 4 5 4 13
split_gain=0.132506 0.185488 0.38811 0.159036 0.133118 0.0879949
threshold=31.500000000000004 22.100000000000005 33.945000000000007 495.00000000000006 21.350000000000005 2.8765000000000005
decision_type=2 2 2 2 2 2
left_child=1 4 -3 5 -1 -2
right_child=3 2 -4 -5 -6 -7
leaf_value=-0.0015205984943575167 -0.0037712948405176174 0.0032357242797608605 -0.00010619295116786488 -0.0075312311582111944 -0.0085233320630600535 0.0012527854923594641
leaf_weight=184 103 694 4248 82 63 142
leaf_count=184 103 694 4248 82 63 142
internal_value=2.53958e-05 0.000187047 0.00036263 -0.0025325 -0.00331639 -0.000849708
internal_weight=5516 5189 4942 327 247 245
internal_count=5516 5189 4942 327 247 245
is_linear=0
shrinkage=0.131037


Tree=103
num_leaves=5
num_cat=0
split_feature=7 7 6 7
split_gain=0.120542 0.165456 0.32558 0.31941
threshold=0.16500000000000004 0.36000000000000004 869.00000000000011 0.43500000000000005
decision_type=2 2 2 2
left_child=-1 2 -2 -3
right_child=1 3 -4 -5
leaf_value=0.0064923091853250556 -0.00091966188581701089 0.0066202672125193658 -0.0099621277651466174 5.8501982182774762e-05
leaf_weight=49 619 131 77 4640
leaf_count=49 619 131 77 4640
internal_value=2.18416e-05 -3.5721e-05 -0.00192349 0.000239173
internal_weight=5516 5467 696 4771
internal_count=5516 5467 696 4771
is_linear=0
shrinkage=0.131037


Tree=104
num_leaves=8
num_cat=0
split_feature=10 0 13 13 13 12 5
split_gain=0.118224 0.356212 0.453876 0.22363 0.194068 0.18234 0.169157
threshold=1.9900000000000002 1190.0000000000002 1.6790000000000003 8.6465000000000014 5.6325000000000012 31.500000000000004 454.79000000000002
decision_type=2 2 2 2 2 2 2
left_child=4 3 -3 -2 5 -1 -6
right_child=1 2 -4 -5 6 -7 -8
leaf_value=0.00026085513570172459 -0.0025225047294564797 -0.0029825845470060897 0.011533376717273934 0.0026406510818774804 0.00018996423710585669 -0.0032582266065254123 0.0045186819567486838
leaf_weight=3270 1031 67 82 167 293 274 332
leaf_count=3270 1031 67 82 167 293 274 332
internal_value=1.89796e-05 -0.00104782 0.00499019 -0.00180078 0.000364231 -1.05506e-05 0.00249318
internal_weight=5516 1347 149 1198 4169 3544 625
internal_count=5516 1347 149 1198 4169 3544 625
is_linear=0
shrinkage=0.131037


Tree=105
num_leaves=5
num_cat=0
split_feature=7 7 0 7
split_gain=0.137471 0.213801 0.431408 0.293985
threshold=3.9500000000000002 2.6000000000000001 1237.5000000000002 2.2300000000000004
decision_type=2 2 2 2
left_child=1 3 -3 -1
right_child=-2 2 -4 -5
leaf_value=-8.5541149184309061e-07 -0.0057289913480784134 0.0062341326512212877 -0.0030272112205233029 -0.0068196205963932492
leaf_weight=4984 71 252 131 111
leaf_count=4984 71 252 131 111
internal_value=0 7.41269e-05 0.00306022 -0.000149878
internal_weight=5549 5478 383 5095
internal_count=5549 5478 383 5095
is_linear=0
shrinkage=0.131037


Tree=106
num_leaves=6
num_cat=0
split_feature=10 4 10 4 2
split_gain=0.116796 0.244536 0.127352 0.287494 0.201586
threshold=4.1000000000000005 39.350000000000009 1.9900000000000002 41.860000000000007 176.00000000000003
decision_type=2 2 2 2 2
left_child=2 -2 4 -4 -1
right_child=1 -3 3 -5 -6
leaf_value=-0.00097907555621347831 0.0089976250322619591 -0.0023564388240149372 -0.0056590041030066662 -0.00034795988191999646 0.00092057336948938478
leaf_weight=1483 72 59 212 1010 2713
leaf_count=1483 72 59 212 1010 2713
internal_value=0 0.0038659 -9.37595e-05 -0.0012713 0.000248611
internal_weight=5549 131 5418 1222 4196
internal_count=5549 131 5418 1222 4196
is_linear=0
shrinkage=0.131037


Tree=107
num_leaves=5
num_cat=0
split_feature=13 2 5 4
split_gain=0.128699 0.115986 0.173701 0.15826
threshold=0.45150000000000007 403.00000000000006 454.79000000000002 47.95000000000001
decision_type=2 2 2 2
left_child=-1 3 -3 -2
right_child=1 2 -4 -5
leaf_value=-0.0057521660178896815 -0.00019912457362524627 -0.0052396492254222563 -0.00014676751317043888 0.0014434515330864768
leaf_weight=66 3545 169 363 1406
leaf_count=66 3545 169 363 1406
internal_value=0 6.88837e-05 -0.0017691 0.00026686
internal_weight=5549 5483 532 4951
internal_count=5549 5483 532 4951
is_linear=0
shrinkage=0.131037


Tree=108
num_leaves=5
num_cat=0
split_feature=13 6 4 4
split_gain=0.123294 0.117488 0.634218 0.390663
threshold=10.792500000000002 453.00000000000006 41.660000000000004 41.860000000000007
decision_type=2 2 2 2
left_child=1 2 -1 -3
right_child=-2 3 -4 -5
leaf_value=-0.00097260560029112332 0.0051391713502240933 0.0018554268292699635 0.0032962622746845385 -0.0015812771492628786
leaf_weight=1658 79 778 934 2100
leaf_count=1658 79 778 934 2100
internal_value=-4.90029e-08 -7.47078e-05 0.000564722 -0.000651419
internal_weight=5549 5470 2592 2878
internal_count=5549 5470 2592 2878
is_linear=0
shrinkage=0.131037


Tree=109
num_leaves=5
num_cat=0
split_feature=7 7 9 7
split_gain=0.108116 0.152406 0.3449 0.2131
threshold=3.9500000000000002 2.6000000000000001 100.50000000000001 2.3800000000000003
decision_type=2 2 2 2
left_child=1 3 -3 -1
right_child=-2 2 -4 -5
leaf_value=-1.9504776257607833e-05 -0.0050808693081717806 0.0053271027428779712 -0.00305055964220796 -0.0070567890614593618
leaf_weight=5020 71 258 125 75
leaf_count=5020 71 258 125 75
internal_value=0 6.54925e-05 0.00258668 -0.000123565
internal_weight=5549 5478 383 5095
internal_count=5549 5478 383 5095
is_linear=0
shrinkage=0.131037


Tree=110
num_leaves=8
num_cat=0
split_feature=13 11 11 4 7 4 8
split_gain=0.124515 0.351879 0.325174 0.713312 0.252886 0.247953 0.23918
threshold=2.5155000000000007 448.50000000000006 480.50000000000006 37.800000000000004 0.25500000000000006 42.600000000000009 0.22500000000000003
decision_type=2 2 2 2 2 2 2
left_child=1 4 3 -2 -1 -4 -3
right_child=2 6 5 -5 -6 -7 -8
leaf_value=-0.0083056801940489932 0.0077039619508296161 0.0064138340269493284 -0.0030388596893659503 0.00056873043262361167 -0.0015219196655778819 0.00043212477425429185 0.00039799905473346972
leaf_weight=102 286 136 578 1521 1297 907 692
leaf_count=102 286 136 578 1521 1297 907 692
internal_value=5.9459e-06 -0.000750357 0.000518297 0.00169937 -0.00201823 -0.000917276 0.00138899
internal_weight=5519 2227 3292 1807 1399 1485 828
internal_count=5519 2227 3292 1807 1399 1485 828
is_linear=0
shrinkage=0.131037


Tree=111
num_leaves=8
num_cat=0
split_feature=13 2 5 9 8 2 13
split_gain=0.117756 0.157049 0.209233 0.141487 0.0984698 0.106689 0.0448754
threshold=7.9770000000000012 352.50000000000006 454.79000000000002 89.500000000000014 0.88500000000000012 403.00000000000006 10.470500000000003
decision_type=2 2 2 2 2 2 2
left_child=1 3 -3 -1 5 -2 -6
right_child=4 2 -4 -5 6 -7 -8
leaf_value=-0.00060208822546873578 0.0079171252273490152 -0.0077214607582799261 -0.00094811140061401588 0.00083612958107085063 -0.0019226498371704415 0.0017750026343569744 0.0028445243048180039
leaf_weight=2519 80 102 342 2200 97 127 52
leaf_count=2519 80 102 342 2200 97 127 52
internal_value=5.22324e-06 -0.000153285 -0.00250953 6.79067e-05 0.00231069 0.0041603 -0.000242992
internal_weight=5519 5163 444 4719 356 207 149
internal_count=5519 5163 444 4719 356 207 149
is_linear=0
shrinkage=0.131037


Tree=112
num_leaves=6
num_cat=0
split_feature=13 1 1 2 9
split_gain=0.111096 0.243735 0.195194 0.142829 0.0689507
threshold=0.84300000000000008 390.50000000000006 654.50000000000011 176.00000000000003 95.000000000000014
decision_type=2 2 2 2 2
left_child=1 -1 3 -2 -3
right_child=2 4 -4 -5 -6
leaf_value=0.0042309084188744371 -0.0011515142131492259 -0.00070734708592811617 0.0060386132249653987 0.0004465131226361444 -0.0055730713220177577
leaf_weight=75 1284 70 95 3809 186
leaf_count=75 1284 70 95 3809 186
internal_value=4.48259e-06 -0.00232262 0.000153413 4.31669e-05 -0.00425189
internal_weight=5519 331 5188 5093 256
internal_count=5519 331 5188 5093 256
is_linear=0
shrinkage=0.131037


Tree=113
num_leaves=7
num_cat=0
split_feature=4 13 7 5 7 0
split_gain=0.102872 0.268931 0.0953809 0.258425 0.205612 0.0261946
threshold=71.250000000000014 4.1705000000000014 0.36000000000000004 381.00000000000006 0.43500000000000005 990.00000000000011
decision_type=2 2 2 2 2 2
left_child=2 5 3 -1 -4 -2
right_child=1 -3 4 -5 -6 -7
leaf_value=-0.0065251529597094727 -0.0037636092871855186 0.0052480442451072959 0.0054513107209118693 -0.00012156721379721714 0.0001830885489128588 -0.0074872023778729639
leaf_weight=132 60 50 131 605 4460 81
leaf_count=132 60 50 131 605 4460 81
internal_value=3.83903e-06 -0.00298369 0.000111384 -0.00127172 0.000333932 -0.00591961
internal_weight=5519 191 5328 737 4591 141
internal_count=5519 191 5328 737 4591 141
is_linear=0
shrinkage=0.131037


Tree=114
num_leaves=8
num_cat=0
split_feature=13 0 13 4 4 8 4
split_gain=0.103319 0.172427 0.165766 0.159127 0.145778 0.140182 0.0933674
threshold=6.2300000000000013 2117.5000000000005 3.1930000000000009 47.150000000000006 45.705000000000005 0.88500000000000012 42.600000000000009
decision_type=2 2 2 2 2 2 2
left_child=1 4 -3 6 -1 -5 -2
right_child=3 2 -4 5 -6 -7 -8
leaf_value=-0.00064563304011954717 0.0027189400419578009 -0.011033012640713434 -0.001421636531392736 0.0016331139877942449 0.00090232877713591854 -0.0028231075215454605 0.0089987343372751188
leaf_weight=2943 255 48 88 323 1619 194 49
leaf_count=2943 255 48 88 323 1619 194 49
internal_value=3.22288e-06 -0.000233358 -0.00483147 0.0013599 -9.57592e-05 -3.44612e-05 0.00373901
internal_weight=5519 4698 136 821 4562 517 304
internal_count=5519 4698 136 821 4562 517 304
is_linear=0
shrinkage=0.131037


Tree=115
num_leaves=5
num_cat=0
split_feature=7 9 6 6
split_gain=0.158549 0.107113 0.309569 0.204074
threshold=0.16500000000000004 89.500000000000014 332.00000000000006 338.50000000000006
decision_type=2 2 2 2
left_child=-1 2 -2 -3
right_child=1 3 -4 -5
leaf_value=0.007466000257109663 -0.01056629859796626 0.0045185032021668207 -0.00045653335615639909 0.00017683965788283621
leaf_weight=48 53 202 2858 2352
leaf_count=48 53 202 2858 2352
internal_value=-3.13812e-05 -9.76693e-05 -0.000641423 0.000521162
internal_weight=5513 5465 2911 2554
internal_count=5513 5465 2911 2554
is_linear=0
shrinkage=0.131037


Tree=116
num_leaves=5
num_cat=0
split_feature=7 13 2 4
split_gain=0.11972 0.0968561 0.130881 0.0923277
threshold=0.16500000000000004 6.9410000000000016 352.50000000000006 47.150000000000006
decision_type=2 2 2 2
left_child=-1 2 -2 -3
right_child=1 3 -4 -5
leaf_value=0.0064877214899992782 -8.3830964675728691e-05 0.0039681668427025652 -0.002648591547243053 0.00041699604239146039
leaf_weight=48 4492 180 370 423
leaf_count=48 4492 180 370 423
internal_value=-2.71562e-05 -8.48144e-05 -0.0002795 0.00148099
internal_weight=5513 5465 4862 603
internal_count=5513 5465 4862 603
is_linear=0
shrinkage=0.131037


Tree=117
num_leaves=7
num_cat=0
split_feature=13 10 5 11 5 9
split_gain=0.0967709 0.357475 0.282509 0.24829 0.305371 0.101897
threshold=2.1790000000000007 4.1000000000000005 421.00000000000006 441.00000000000006 415.00000000000006 95.000000000000014
decision_type=2 2 2 2 2 2
left_child=3 2 -2 4 -1 -5
right_child=1 -3 -4 5 -6 -7
leaf_value=0.0025513277568377747 -0.0016703730465264239 0.010756509922098256 0.00092299919198901592 0.0028794293170051697 -0.0029782378197613871 -0.00029193585126006727
leaf_weight=209 997 56 2606 319 946 380
leaf_count=209 997 56 2606 319 946 380
internal_value=-2.34844e-05 0.000366866 0.000204718 -0.000795147 -0.00197559 0.00115198
internal_weight=5513 3659 3603 1854 1155 699
internal_count=5513 3659 3603 1854 1155 699
is_linear=0
shrinkage=0.131037


Tree=118
num_leaves=5
num_cat=0
split_feature=7 9 3 6
split_gain=0.0944635 0.0930377 0.327132 0.227618
threshold=0.16500000000000004 89.500000000000014 3.8350000000000004 332.00000000000006
decision_type=2 2 2 2
left_child=-1 3 -3 -2
right_child=1 2 -4 -5
leaf_value=0.0057666883031401413 -0.0090891905323943114 0.00074945961648927744 -0.0085272134975003158 -0.00041970205087320727
leaf_weight=48 53 2487 67 2858
leaf_count=48 53 2487 67 2858
internal_value=-2.02936e-05 -7.15583e-05 0.000505165 -0.000578368
internal_weight=5513 5465 2554 2911
internal_count=5513 5465 2554 2911
is_linear=0
shrinkage=0.131037


Tree=119
num_leaves=8
num_cat=0
split_feature=13 11 6 4 1 4 8
split_gain=0.080832 0.210234 0.404864 0.189773 0.405702 0.271725 0.174132
threshold=3.0725000000000002 480.50000000000006 711.60000000000014 25.400000000000002 604.50000000000011 22.700000000000003 0.88500000000000012
decision_type=2 2 2 2 2 2 2
left_child=3 2 -2 5 -5 -1 -3
right_child=1 6 -4 4 -6 -7 -8
leaf_value=-0.00015052202049278644 0.0008647635618827317 0.00010642289056309597 0.0083581415592345592 -0.00060334497960344178 -0.01169459690750181 0.0090558217293097692 -0.0034783066810328356
leaf_weight=162 1300 1020 137 2452 58 83 301
leaf_count=162 1300 1020 137 2452 58 83 301
internal_value=-1.7635e-05 0.000483403 0.00158083 -0.00052008 -0.000860593 0.00295873 -0.000708593
internal_weight=5513 2758 1437 2755 2510 245 1321
internal_count=5513 2758 1437 2755 2510 245 1321
is_linear=0
shrinkage=0.131037


Tree=120
num_leaves=7
num_cat=0
split_feature=13 1 5 5 1 4
split_gain=0.10943 0.125364 0.167138 0.150684 0.121358 0.0830526
threshold=0.75250000000000006 654.50000000000011 392.00000000000006 447.50000000000006 390.50000000000006 41.660000000000004
decision_type=2 2 2 2 2 2
left_child=4 3 -3 -2 -1 -6
right_child=1 2 -4 -5 5 -7
